{"learner":{"attributes":{"scikit_learn":"{\"_estimator_type\": \"classifier\"}"},"feature_names":["Tenure","CityTier","WarehouseToHome","HourSpendOnApp","NumberOfDeviceRegistered","SatisfactionScore","NumberOfAddress","Complain","OrderAmountHikeFromlastYear","CouponUsed","OrderCount","DaySinceLastOrder","CashbackAmount","PreferredLoginDevice_Mobile Phone","PreferredPaymentMode_Credit Card","PreferredPaymentMode_Debit Card","PreferredPaymentMode_E wallet","PreferredPaymentMode_UPI","Gender_Male","PreferedOrderCat_Grocery","PreferedOrderCat_Laptop & Accessory","PreferedOrderCat_Mobile Phone","PreferedOrderCat_Others","MaritalStatus_Married","MaritalStatus_Single","Tenure_Group_1-5","Tenure_Group_10-20","Tenure_Group_20-30","Tenure_Group_30+","Tenure_Group_5-10","Tenure_Group_nan"],"feature_types":["float","float","float","float","float","float","float","float","float","float","float","float","float","float","float","float","float","float","float","float","float","float","float","float","float","float","float","float","float","float","float"],"gradient_booster":{"model":{"cats":{"enc":[],"feature_segments":[],"sorted_idx":[]},"gbtree_model_param":{"num_parallel_tree":"1","num_trees":"100"},"iteration_indptr":[0,1,2,3,4,5,6,7,8,9,10,11,12,13,14,15,16,17,18,19,20,21,22,23,24,25,26,27,28,29,30,31,32,33,34,35,36,37,38,39,40,41,42,43,44,45,46,47,48,49,50,51,52,53,54,55,56,57,58,59,60,61,62,63,64,65,66,67,68,69,70,71,72,73,74,75,76,77,78,79,80,81,82,83,84,85,86,87,88,89,90,91,92,93,94,95,96,97,98,99,100],"tree_info":[0,0,0,0,0,0,0,0,0,0,0,0,0,0,0,0,0,0,0,0,0,0,0,0,0,0,0,0,0,0,0,0,0,0,0,0,0,0,0,0,0,0,0,0,0,0,0,0,0,0,0,0,0,0,0,0,0,0,0,0,0,0,0,0,0,0,0,0,0,0,0,0,0,0,0,0,0,0,0,0,0,0,0,0,0,0,0,0,0,0,0,0,0,0,0,0,0,0,0,0],"trees":[{"base_weights":[-0E0,1.3677893E0,-9.1135305E-1,6.969292E-1,1.5882875E0,-1.2675139E0,-1.4763232E-1,3.0612245E-2,1.4127424E0,1.3509821E0,1.8380865E0,7.5757575E-1,-1.3566813E0,-8.364486E-1,8.630137E-1,4.1290322E-1,-1.3488373E0,-6.896552E-2,1.5238096E0,-1.8181819E-1,1.4535519E0,1.8484288E0,-6.666667E-2,1.3333334E0,-7E-1,-1.7075024E0,-1.1585624E0,-1.4666667E0,-3.1578947E-2,1.2808989E0,-4.6153846E-1,1.1764706E0,-1.7977528E-1,-1.6216216E0,2.5E-1,-4.1538465E-1,8E-1,-4.4444445E-1,1.6149068E0,-1.0204082E0,1.125E0,1.7861387E0,1.162479E0,1.6740088E0,5.886076E-1,2.0689656E-1,1.7183099E0,-1.1515151E0,2.7272728E-1,-1.7271854E0,-0E0,5.791305E-1,-1.3554183E0,4.8000002E-1,-1.5862069E0,-8.828829E-1,1.1358025E0,-1.3333334E0,1.4164706E0,-9.1525424E-1,1.4482758E0,-4.8571432E-1,4.8907566E-1,-3.4368932E-1,3.2658228E-1,-5.3043485E-1,6.666667E-2,3E-1,-3E-1,3.75E-1,-1.5E-1,-4.1538465E-1,3.3333337E-1,4.9902916E-1,1.0588236E-1,-4.5000002E-1,-2.857143E-2,4.2857146E-1,-1.5E-1,1.0588236E-1,5.463415E-1,-6.666667E-2,3.7985614E-1,-3.6E-1,5.169643E-1,-4.1538465E-1,3.6E-1,5.446154E-1,1.20000005E-1,1.0000001E-1,-5.04E-1,-5.381579E-1,-3.6541355E-1,-3.6E-1,3.6E-1,-3.5490966E-1,-5.320313E-1,-5.1000005E-1,1.2857144E-1,2.0000002E-1,-4.624204E-1,-6.666667E-2,4.4307694E-1,-4.8000002E-1,-0E0,4.9779183E-1,2.0357142E-1,-4.1176474E-1,4.8000002E-1,1.20000005E-1,4.9565217E-1],"categories":[],"categories_nodes":[],"categories_segments":[],"categories_sizes":[],"default_left":[0,0,0,0,0,0,0,0,0,0,0,0,0,0,0,0,0,0,0,0,0,0,0,0,0,0,0,0,0,0,0,0,0,0,0,0,0,0,0,0,0,0,0,0,0,0,0,0,0,0,0,0,0,0,0,0,0,0,0,0,0,0,0,0,0,0,0,0,0,0,0,0,0,0,0,0,0,0,0,0,0,0,0,0,0,0,0,0,0,0,0,0,0,0,0,0,0,0,0,0,0,0,0,0,0,0,0,0,0,0,0],"id":0,"left_children":[1,3,5,7,9,11,13,15,17,19,21,23,25,27,29,31,33,35,37,39,41,43,-1,45,47,49,51,53,55,57,59,61,63,65,67,-1,69,71,73,75,77,79,81,83,-1,85,87,89,-1,91,93,-1,95,-1,97,99,101,103,105,107,109,-1,-1,-1,-1,-1,-1,-1,-1,-1,-1,-1,-1,-1,-1,-1,-1,-1,-1,-1,-1,-1,-1,-1,-1,-1,-1,-1,-1,-1,-1,-1,-1,-1,-1,-1,-1,-1,-1,-1,-1,-1,-1,-1,-1,-1,-1,-1,-1,-1,-1],"loss_changes":[2.3372603E3,1.09798706E2,3.0588916E2,8.926723E1,3.0920288E1,1.395719E2,2.5063951E2,5.2237347E1,1.49574585E1,4.629016E1,6.201294E0,2.8627275E1,4.9124878E1,1.0850375E2,8.1403755E1,3.5284122E1,9.782368E0,9.396286E0,1.5779144E1,2.2243738E1,2.4497131E1,2.0751343E0,0E0,1.0052128E1,8.31212E0,8.847473E0,2.9024188E2,4.6528717E1,9.5413445E1,4.1317398E1,3.230338E1,4.577031E1,5.5762978E1,5.3899994E0,4.75E0,0E0,3.55E0,8.1196575E0,4.342346E0,5.2925167E0,4.660714E0,5.6901245E0,2.1714355E1,1.8118683E1,0E0,1.3120424E1,1.5453949E0,7.0339394E0,0E0,6.649597E0,7.2E0,0E0,2.9987E1,0E0,2.7323639E1,5.766018E1,1.908984E1,2.1333332E0,1.791278E1,3.612735E1,8.8875484E-1,0E0,0E0,0E0,0E0,0E0,0E0,0E0,0E0,0E0,0E0,0E0,0E0,0E0,0E0,0E0,0E0,0E0,0E0,0E0,0E0,0E0,0E0,0E0,0E0,0E0,0E0,0E0,0E0,0E0,0E0,0E0,0E0,0E0,0E0,0E0,0E0,0E0,0E0,0E0,0E0,0E0,0E0,0E0,0E0,0E0,0E0,0E0,0E0,0E0,0E0],"parents":[2147483647,0,0,1,1,2,2,3,3,4,4,5,5,6,6,7,7,8,8,9,9,10,10,11,11,12,12,13,13,14,14,15,15,16,16,17,17,18,18,19,19,20,20,21,21,23,23,24,24,25,25,26,26,27,27,28,28,29,29,30,30,31,31,32,32,33,33,34,34,36,36,37,37,38,38,39,39,40,40,41,41,42,42,43,43,45,45,46,46,47,47,49,49,50,50,52,52,54,54,55,55,56,56,57,57,58,58,59,59,60,60],"right_children":[2,4,6,8,10,12,14,16,18,20,22,24,26,28,30,32,34,36,38,40,42,44,-1,46,48,50,52,54,56,58,60,62,64,66,68,-1,70,72,74,76,78,80,82,84,-1,86,88,90,-1,92,94,-1,96,-1,98,100,102,104,106,108,110,-1,-1,-1,-1,-1,-1,-1,-1,-1,-1,-1,-1,-1,-1,-1,-1,-1,-1,-1,-1,-1,-1,-1,-1,-1,-1,-1,-1,-1,-1,-1,-1,-1,-1,-1,-1,-1,-1,-1,-1,-1,-1,-1,-1,-1,-1,-1,-1,-1,-1],"split_conditions":[3.2786883E-2,4.859623E-2,3.817134E-3,3.817134E-3,3.817134E-3,3.723077E-1,5.6658145E-3,1.2907228E-2,2.4998361E-2,1.7027257E-2,7.5076926E-1,6E-1,4.061716E-1,5.0512177E-1,1.6393442E-1,8.4486234E-1,1.538126E-1,7.334151E-3,3.011194E-1,1.9488439E-1,9.9459505E-1,9.765998E-2,-6.666667E-2,1.8798836E-3,7.5013345E-1,9.3333334E-1,5.9994274E-1,9.51442E-1,1.8798836E-3,7.777936E-3,3.8959908E-1,2.620796E-1,5.5847326E-3,5.723077E-1,1.3462709E-3,-4.1538465E-1,1.3462709E-3,7.5013345E-1,6.9550747E-1,5.5847326E-3,2.0640577E-1,8.591685E-3,4.061716E-1,3.011194E-1,5.886076E-1,5.5847326E-3,1.2147436E-1,7.032572E-2,2.7272728E-1,8.411591E-3,5.9005093E-2,5.791305E-1,2.6229507E-1,4.8000002E-1,2.4590164E-1,3.74731E-2,9.765998E-2,5.5847326E-3,4.5214656E-1,8.411591E-3,2.252337E-2,-4.8571432E-1,4.8907566E-1,-3.4368932E-1,3.2658228E-1,-5.3043485E-1,6.666667E-2,3E-1,-3E-1,3.75E-1,-1.5E-1,-4.1538465E-1,3.3333337E-1,4.9902916E-1,1.0588236E-1,-4.5000002E-1,-2.857143E-2,4.2857146E-1,-1.5E-1,1.0588236E-1,5.463415E-1,-6.666667E-2,3.7985614E-1,-3.6E-1,5.169643E-1,-4.1538465E-1,3.6E-1,5.446154E-1,1.20000005E-1,1.0000001E-1,-5.04E-1,-5.381579E-1,-3.6541355E-1,-3.6E-1,3.6E-1,-3.5490966E-1,-5.320313E-1,-5.1000005E-1,1.2857144E-1,2.0000002E-1,-4.624204E-1,-6.666667E-2,4.4307694E-1,-4.8000002E-1,-0E0,4.9779183E-1,2.0357142E-1,-4.1176474E-1,4.8000002E-1,1.20000005E-1,4.9565217E-1],"split_indices":[0,6,7,7,7,12,21,20,2,5,12,3,4,1,0,13,11,13,4,6,25,6,0,24,5,10,4,7,24,6,6,5,1,12,23,0,23,5,17,1,8,2,4,4,0,1,2,8,0,16,2,0,0,0,2,11,6,1,12,16,11,0,0,0,0,0,0,0,0,0,0,0,0,0,0,0,0,0,0,0,0,0,0,0,0,0,0,0,0,0,0,0,0,0,0,0,0,0,0,0,0,0,0,0,0,0,0,0,0,0,0],"split_type":[0,0,0,0,0,0,0,0,0,0,0,0,0,0,0,0,0,0,0,0,0,0,0,0,0,0,0,0,0,0,0,0,0,0,0,0,0,0,0,0,0,0,0,0,0,0,0,0,0,0,0,0,0,0,0,0,0,0,0,0,0,0,0,0,0,0,0,0,0,0,0,0,0,0,0,0,0,0,0,0,0,0,0,0,0,0,0,0,0,0,0,0,0,0,0,0,0,0,0,0,0,0,0,0,0,0,0,0,0,0,0],"sum_hessian":[1.873E3,7.4875E2,1.12425E3,1.8625E2,5.625E2,7.6625E2,3.58E2,9.7E1,8.925E1,2.9175E2,2.7075E2,3.2E1,7.3425E2,2.13E2,1.45E2,7.65E1,2.05E1,6.25E0,8.3E1,1.825E1,2.735E2,2.695E2,1.25E0,2.3E1,9E0,2.6225E2,4.72E2,1.19E2,9.4E1,1.1025E2,3.475E1,3.3E1,4.35E1,1.75E1,3E0,2.25E0,4E0,3.5E0,7.95E1,1.125E1,7E0,1.2525E2,1.4825E2,1.125E2,1.57E2,6.25E0,1.675E1,7.25E0,1.75E0,2.5925E2,3E0,2.775E1,4.4425E2,4E0,1.15E2,5.45E1,3.95E1,5E0,1.0525E2,2.85E1,6.25E0,4.25E0,2.875E1,2.475E1,1.875E1,1.625E1,1.25E0,2E0,1E0,3E0,1E0,2.25E0,1.25E0,7.625E1,3.25E0,7E0,4.25E0,6E0,1E0,3.25E0,1.22E2,1.025E1,1.38E2,1.5E0,1.11E2,2.25E0,4E0,1.525E1,1.5E0,2E0,5.25E0,2.27E2,3.225E1,1.5E0,1.5E0,3.1725E2,1.27E2,1.09E2,6E0,1.625E1,3.825E1,8E0,3.15E1,4E0,1E0,7.825E1,2.7E1,2.45E1,4E0,1.5E0,4.75E0],"tree_param":{"num_deleted":"0","num_feature":"31","num_nodes":"111","size_leaf_vector":"1"}},{"base_weights":[1.6137202E-3,1.0276451E0,-6.765144E-1,5.1645833E-1,1.1976889E0,-9.4288576E-1,-1.0678361E-1,1.742456E-2,1.0584718E0,1.0044874E0,1.4067231E0,8.724345E-1,-9.995205E-1,-6.211795E-1,6.446337E-1,3.29451E-1,-9.7379637E-1,1.4349138E0,7.236359E-1,1.541407E-1,1.1290569E0,1.4153982E0,-5.5593953E-2,1.1302965E0,-8.9530396E-1,-9.126189E-1,-4.7204062E-1,-6.322535E-3,-1.2005711E0,9.4950724E-1,-3.1907988E-1,-2.2038497E-1,8.125188E-1,-1.1765351E0,3.0129E-1,1.4707547E0,4.643267E-2,3.1941706E-1,4.4456914E-1,-7.0680773E-1,1.0194002E0,1.3990102E0,8.9926946E-1,1.4659336E0,1.0668085E0,1.3830994E0,-2.871042E-1,-6.489487E-2,-3.5037813E-1,-6.950141E-1,-1.2520194E0,-7.5341284E-1,6.172828E-1,4.344688E-1,-1.3086717E0,-1.058473E0,1.0546508E0,-8.165855E-1,7.3286635E-1,7.9582244E-2,-2.793679E-1,-2.6192492E-1,2.9592115E-1,-3.1201547E-2,-4.0229568E-1,1.6660756E-1,4.5304742E-1,-2.6464567E-1,2.182875E-1,1.8136486E-1,-4.370498E-1,3.8848457E-1,-3.981838E-1,1.0905721E-1,4.3166822E-1,-1.16625994E-1,2.9672346E-1,4.4219872E-1,1.3155259E-1,1.21162504E-1,3.7961575E-1,4.4320282E-1,1.579189E-2,1.3946389E-1,-2.814381E-1,-2.398802E-1,6.2999177E-1,-4.1283372E-1,-1.443387E-1,-3.4659567E-1,1.1401517E-1,-2.484417E-1,3.0582255E-1,-8.86922E-2,-4.2260766E-1,-3.8399875E-1,-0E0,3.9591244E-1,1.4946058E-1,-4.5257202E-1,2.7239996E-1,3.9459464E-1,-2.2492503E-1],"categories":[],"categories_nodes":[],"categories_segments":[],"categories_sizes":[],"default_left":[0,0,0,0,0,0,0,0,0,0,0,0,0,0,0,0,0,0,0,0,0,0,0,0,0,0,0,0,0,0,0,0,0,0,0,0,0,0,0,0,0,0,0,0,0,0,0,0,0,0,0,0,0,0,0,0,0,0,0,0,0,0,0,0,0,0,0,0,0,0,0,0,0,0,0,0,0,0,0,0,0,0,0,0,0,0,0,0,0,0,0,0,0,0,0,0,0,0,0,0,0,0,0],"id":1,"left_children":[1,3,5,7,9,11,13,15,17,19,21,23,25,27,29,31,33,35,37,39,41,43,-1,45,47,49,-1,51,53,55,57,59,61,63,-1,65,-1,67,-1,69,71,73,75,77,79,81,83,-1,-1,85,87,89,91,-1,93,95,97,99,101,-1,-1,-1,-1,-1,-1,-1,-1,-1,-1,-1,-1,-1,-1,-1,-1,-1,-1,-1,-1,-1,-1,-1,-1,-1,-1,-1,-1,-1,-1,-1,-1,-1,-1,-1,-1,-1,-1,-1,-1,-1,-1,-1,-1],"loss_changes":[1.2352037E3,6.078705E1,1.6210812E2,4.8152225E1,1.9964539E1,7.5738464E1,1.3245697E2,2.9312975E1,9.720039E0,2.933551E1,3.7392578E0,1.1297907E1,3.380896E1,7.242405E1,4.1239323E1,1.9314198E1,1.0283489E1,1.5691986E0,1.3990574E1,2.8100113E1,1.3805054E1,2.84906E0,0E0,7.611786E0,3.8238692E-1,4.463159E1,0E0,4.688944E1,3.186734E1,2.3516006E1,1.8514128E1,1.2150282E1,1.2164124E1,3.5726757E0,0E0,5.3118896E-1,0E0,1.636495E1,0E0,1.958136E1,1.3836809E1,4.0139008E0,1.5881851E1,1.1437683E0,4.1478767E0,2.086277E0,2.3334913E0,0E0,0E0,1.12073975E2,2.2243347E1,2.129632E1,3.2732018E1,0E0,9.826874E0,1.3548408E0,1.4286018E1,2.9670023E1,1.0933059E1,0E0,0E0,0E0,0E0,0E0,0E0,0E0,0E0,0E0,0E0,0E0,0E0,0E0,0E0,0E0,0E0,0E0,0E0,0E0,0E0,0E0,0E0,0E0,0E0,0E0,0E0,0E0,0E0,0E0,0E0,0E0,0E0,0E0,0E0,0E0,0E0,0E0,0E0,0E0,0E0,0E0,0E0,0E0,0E0],"parents":[2147483647,0,0,1,1,2,2,3,3,4,4,5,5,6,6,7,7,8,8,9,9,10,10,11,11,12,12,13,13,14,14,15,15,16,16,17,17,18,18,19,19,20,20,21,21,23,23,24,24,25,25,27,27,28,28,29,29,30,30,31,31,32,32,33,33,35,35,37,37,39,39,40,40,41,41,42,42,43,43,44,44,45,45,46,46,49,49,50,50,51,51,52,52,54,54,55,55,56,56,57,57,58,58],"right_children":[2,4,6,8,10,12,14,16,18,20,22,24,26,28,30,32,34,36,38,40,42,44,-1,46,48,50,-1,52,54,56,58,60,62,64,-1,66,-1,68,-1,70,72,74,76,78,80,82,84,-1,-1,86,88,90,92,-1,94,96,98,100,102,-1,-1,-1,-1,-1,-1,-1,-1,-1,-1,-1,-1,-1,-1,-1,-1,-1,-1,-1,-1,-1,-1,-1,-1,-1,-1,-1,-1,-1,-1,-1,-1,-1,-1,-1,-1,-1,-1,-1,-1,-1,-1,-1,-1],"split_conditions":[3.2786883E-2,4.859623E-2,3.817134E-3,3.817134E-3,3.817134E-3,3.6923078E-1,5.6658145E-3,9.4825155E-1,4.2960588E-2,2.620796E-1,7.5076926E-1,5.846681E-1,3.6065573E-1,1E0,1.6393442E-1,5.014605E-1,8.1059283E-1,2.1311475E-1,1.2684949E-1,6.0343E-1,9.9459505E-1,8E-1,-5.5593953E-2,5.881057E-1,7.032572E-2,1E0,-4.7204062E-1,5.0512177E-1,9.9485797E-1,7.777936E-3,2.3815934E-1,5.726002E-1,8.591685E-3,1.22646496E-1,3.0129E-1,3.37917E-2,4.643267E-2,2.620796E-1,4.4456914E-1,6.292426E-2,1.2907228E-2,7.6792926E-2,1.7707707E-2,2.2794107E-1,6.329468E-2,1.6683666E-2,1.3682608E-1,-6.489487E-2,-3.5037813E-1,1.2907228E-2,5.885006E-1,2.887915E-1,2.620796E-1,4.344688E-1,6.317468E-2,5.5847326E-3,6.468476E-2,5.0512177E-1,1.1934433E-2,7.9582244E-2,-2.793679E-1,-2.6192492E-1,2.9592115E-1,-3.1201547E-2,-4.0229568E-1,1.6660756E-1,4.5304742E-1,-2.6464567E-1,2.182875E-1,1.8136486E-1,-4.370498E-1,3.8848457E-1,-3.981838E-1,1.0905721E-1,4.3166822E-1,-1.16625994E-1,2.9672346E-1,4.4219872E-1,1.3155259E-1,1.21162504E-1,3.7961575E-1,4.4320282E-1,1.579189E-2,1.3946389E-1,-2.814381E-1,-2.398802E-1,6.2999177E-1,-4.1283372E-1,-1.443387E-1,-3.4659567E-1,1.1401517E-1,-2.484417E-1,3.0582255E-1,-8.86922E-2,-4.2260766E-1,-3.8399875E-1,-0E0,3.9591244E-1,1.4946058E-1,-4.5257202E-1,2.7239996E-1,3.9459464E-1,-2.2492503E-1],"split_indices":[0,6,7,7,7,12,21,25,11,5,12,14,0,23,0,5,4,2,9,4,25,3,0,3,8,20,0,1,7,6,6,3,2,8,0,2,0,5,0,10,20,4,2,2,9,11,8,0,0,20,12,6,5,0,0,1,11,1,14,0,0,0,0,0,0,0,0,0,0,0,0,0,0,0,0,0,0,0,0,0,0,0,0,0,0,0,0,0,0,0,0,0,0,0,0,0,0,0,0,0,0,0,0],"split_type":[0,0,0,0,0,0,0,0,0,0,0,0,0,0,0,0,0,0,0,0,0,0,0,0,0,0,0,0,0,0,0,0,0,0,0,0,0,0,0,0,0,0,0,0,0,0,0,0,0,0,0,0,0,0,0,0,0,0,0,0,0,0,0,0,0,0,0,0,0,0,0,0,0,0,0,0,0,0,0,0,0,0,0,0,0,0,0,0,0,0,0,0,0,0,0,0,0,0,0,0,0,0,0],"sum_hessian":[1.7732781E3,7.0542706E2,1.0678511E3,1.7709131E2,5.283357E2,7.272012E2,3.4064987E2,9.273865E1,8.435267E1,2.7758286E2,2.5075287E2,2.1565187E1,7.05636E2,2.0232089E2,1.3832898E2,7.104273E1,2.1695911E1,3.816261E1,4.6190056E1,3.5753902E1,2.4182895E2,2.4950426E2,1.2486122E0,1.9134598E1,2.430588E0,6.150945E2,9.0541504E1,9.864674E1,1.0367414E2,1.0509623E2,3.323275E1,3.3479538E1,3.7563198E1,2.0046524E1,1.649387E0,3.6978394E1,1.184216E0,3.105585E1,1.5134208E1,1.801339E1,1.7740513E1,1.0885652E2,1.3297243E2,2.1511372E2,3.4390533E1,1.6258913E1,2.875686E0,1.2101309E0,1.2204571E0,3.766532E2,2.384413E2,4.4785164E1,5.386158E1,3.579062E0,1.00095085E2,4.778167E0,1.0031806E2,2.2714115E1,1.0518636E1,2.0262596E1,1.321694E1,3.1366076E0,3.442659E1,2.8821096E0,1.7164413E1,2.1489682E0,3.4829426E1,7.580738E0,2.3475111E1,6.6246653E0,1.1388724E1,1.6277391E1,1.4631205E0,4.4124603E0,1.0444406E2,8.45033E0,1.24522095E2,2.1300761E2,2.1061215E0,8.626278E0,2.5764256E1,1.5080297E1,1.1786149E0,1.4670496E0,1.4086363E0,3.637556E2,1.2897578E1,2.0470425E2,3.373704E1,3.3047737E1,1.1737426E1,1.1492594E1,4.2368988E1,9.350164E0,9.074492E1,3.778167E0,1E0,6.702154E1,3.329652E1,1.6299295E1,6.414818E0,7.632883E0,2.8857532E0],"tree_param":{"num_deleted":"0","num_feature":"31","num_nodes":"103","size_leaf_vector":"1"}},{"base_weights":[3.5917084E-3,8.280019E-1,-5.292574E-1,5.94491E-1,1.1498505E0,3.8358998E-1,-6.535293E-1,1.087788E0,2.942021E-1,5.4019067E-2,1.1931912E0,-1.6489947E-1,5.193088E-1,-5.531255E-1,-4.1661578E-1,3.645386E-1,1.136044E0,-2.406646E-1,7.217349E-1,3.606319E-1,-5.583842E-1,1.4275905E-1,1.212341E0,7.9219854E-1,-8.81678E-1,-7.590395E-1,-8.746458E-2,9.258976E-1,-3.173566E-1,1.1540343E0,-3.6716186E-2,-7.771454E-1,3.8635638E-1,-6.092145E-1,9.021544E-1,-4.1763774E-1,3.3746424E-1,1.2441086E0,4.881327E-1,-3.312435E-2,1.2407808E0,-1.022591E0,2.4725897E-2,-9.2373073E-1,-4.0232968E-1,-1.1305835E0,2.8161514E-1,3.773867E-1,-7.629653E-2,3.6521095E-1,1.8290845E-1,-4.4968623E-1,6.909411E-2,3.5812816E-1,-1.5045765E-1,-3.395953E-1,3.3440614E-1,3.839375E-1,1.6618581E-1,3.789275E-1,-4.7500152E-2,-1.9331008E-1,3.4135678E-1,-1.6062273E-1,2.7742755E-1,3.941641E-1,1.0495555E-1,-3.377094E-1,1.4405896E-1,3.1305838E-1,-3.2346418E-1,-3.5573995E-1,-1.8253225E-1,-2.5791523E-1,2.991083E-2,-3.9016733E-1,5.5977955E-2,1.8363847E-1,-1.6705976E-1],"categories":[],"categories_nodes":[],"categories_segments":[],"categories_sizes":[],"default_left":[0,0,0,0,0,0,0,0,0,0,0,0,0,0,0,0,0,0,0,0,0,0,0,0,0,0,0,0,0,0,0,0,0,0,0,0,0,0,0,0,0,0,0,0,0,0,0,0,0,0,0,0,0,0,0,0,0,0,0,0,0,0,0,0,0,0,0,0,0,0,0,0,0,0,0,0,0,0,0],"id":2,"left_children":[1,3,5,7,9,11,13,15,17,19,21,23,-1,25,-1,27,29,31,33,-1,-1,35,37,39,41,43,45,47,-1,49,-1,51,53,55,57,-1,-1,59,61,63,65,67,69,71,73,75,77,-1,-1,-1,-1,-1,-1,-1,-1,-1,-1,-1,-1,-1,-1,-1,-1,-1,-1,-1,-1,-1,-1,-1,-1,-1,-1,-1,-1,-1,-1,-1,-1],"loss_changes":[7.075621E2,4.684079E1,1.1123721E2,5.4271973E1,1.2512543E1,8.739163E1,6.282422E1,4.439987E0,5.2872612E1,2.6694828E1,4.9501343E0,5.878939E1,0E0,7.277304E1,0E0,9.101367E0,3.0823364E0,3.4990444E1,3.1365067E1,0E0,0E0,1.0148527E1,5.1442566E0,1.3660496E1,6.269779E0,3.0564362E1,9.04254E1,3.387199E0,0E0,3.6767273E0,0E0,4.1000996E1,3.5165703E1,1.5605492E1,1.4204132E1,0E0,0E0,6.558655E0,9.674068E0,7.1962004E0,1.0941849E0,7.100445E0,9.613902E0,2.8982605E1,3.8686375E1,1.3982132E1,4.847255E1,0E0,0E0,0E0,0E0,0E0,0E0,0E0,0E0,0E0,0E0,0E0,0E0,0E0,0E0,0E0,0E0,0E0,0E0,0E0,0E0,0E0,0E0,0E0,0E0,0E0,0E0,0E0,0E0,0E0,0E0,0E0,0E0],"parents":[2147483647,0,0,1,1,2,2,3,3,4,4,5,5,6,6,7,7,8,8,9,9,10,10,11,11,13,13,15,15,16,16,17,17,18,18,21,21,22,22,23,23,24,24,25,25,26,26,27,27,29,29,31,31,32,32,33,33,34,34,37,37,38,38,39,39,40,40,41,41,42,42,43,43,44,44,45,45,46,46],"right_children":[2,4,6,8,10,12,14,16,18,20,22,24,-1,26,-1,28,30,32,34,-1,-1,36,38,40,42,44,46,48,-1,50,-1,52,54,56,58,-1,-1,60,62,64,66,68,70,72,74,76,78,-1,-1,-1,-1,-1,-1,-1,-1,-1,-1,-1,-1,-1,-1,-1,-1,-1,-1,-1,-1,-1,-1,-1,-1,-1,-1,-1,-1,-1,-1,-1,-1],"split_conditions":[3.2786883E-2,9.765998E-2,2.173913E-2,4.347826E-2,3.011194E-1,1.1921874E-3,3.6065573E-1,7.777936E-3,1.8798836E-3,7.628555E-1,8.591685E-3,3.8153845E-1,5.193088E-1,3.817134E-3,-4.1661578E-1,6.797923E-3,9.3333334E-1,5.5847326E-3,1.7027257E-2,3.606319E-1,-5.583842E-1,5.5847326E-3,4.2857143E-1,5.014605E-1,1.8192641E-1,5.885006E-1,2.620796E-1,4.4559526E-1,-3.173566E-1,8E-1,-3.6716186E-2,3.817134E-3,8.598238E-1,3.353954E-1,9.390571E-1,-4.1763774E-1,3.3746424E-1,2.4590164E-1,5.5847326E-3,5.5847326E-3,1.4754099E-1,3.8959908E-1,2.1674128E-1,9.765998E-2,6.7646414E-2,3.3777484E-1,8.9718634E-1,3.773867E-1,-7.629653E-2,3.6521095E-1,1.8290845E-1,-4.4968623E-1,6.909411E-2,3.5812816E-1,-1.5045765E-1,-3.395953E-1,3.3440614E-1,3.839375E-1,1.6618581E-1,3.789275E-1,-4.7500152E-2,-1.9331008E-1,3.4135678E-1,-1.6062273E-1,2.7742755E-1,3.941641E-1,1.0495555E-1,-3.377094E-1,1.4405896E-1,3.1305838E-1,-3.2346418E-1,-3.5573995E-1,-1.8253225E-1,-2.5791523E-1,2.991083E-2,-3.9016733E-1,5.5977955E-2,1.8363847E-1,-1.6705976E-1],"split_indices":[0,6,11,11,4,11,0,6,24,13,2,12,0,7,0,11,8,1,5,0,0,1,6,5,2,12,5,8,0,3,0,7,20,10,13,0,0,2,1,1,2,6,0,6,10,6,20,0,0,0,0,0,0,0,0,0,0,0,0,0,0,0,0,0,0,0,0,0,0,0,0,0,0,0,0,0,0,0,0],"split_type":[0,0,0,0,0,0,0,0,0,0,0,0,0,0,0,0,0,0,0,0,0,0,0,0,0,0,0,0,0,0,0,0,0,0,0,0,0,0,0,0,0,0,0,0,0,0,0,0,0,0,0,0,0,0,0,0,0,0,0,0,0,0,0,0,0,0,0,0,0,0,0,0,0,0,0,0,0,0,0],"sum_hessian":[1.6087107E3,6.313495E2,9.7736127E2,3.6753717E2,2.638123E2,1.1686139E2,8.604999E2,1.3808188E2,2.2945529E2,1.012239E1,2.536899E2,8.3677284E1,3.3184105E1,7.586452E2,1.0185471E2,9.171784E0,1.289101E2,1.0212654E2,1.2732875E2,6.561562E0,3.5608282E0,4.693447E0,2.4899646E2,3.5786785E1,4.78905E1,5.2559735E2,2.3304782E2,6.82665E0,2.3451345E0,1.27175E2,1.7350941E0,5.4907833E1,4.721871E1,1.491614E1,1.1241261E2,1.6684631E0,3.0249841E0,2.3784541E2,1.1151039E1,1.2927789E1,2.2858997E1,4.1336056E1,6.554443E0,3.584932E2,1.6710416E2,6.036808E1,1.7267973E2,5.2762866E0,1.5503633E0,1.1281251E2,1.43624935E1,3.170469E1,2.3203142E1,2.4549698E1,2.2669014E1,1.1708821E1,3.207318E0,5.2643456E1,5.9769154E1,2.3476704E2,3.0783694E0,4.068203E0,7.0828357E0,8.770076E0,4.1577125E0,2.0686935E1,2.1720617E0,3.8916874E1,2.4191806E0,3.4351814E0,3.1192613E0,1.9426176E2,1.6423145E2,8.70672E1,8.003696E1,5.3479473E1,6.888606E0,1.2405113E2,4.8628605E1],"tree_param":{"num_deleted":"0","num_feature":"31","num_nodes":"79","size_leaf_vector":"1"}},{"base_weights":[4.619459E-3,6.458719E-1,-4.4986758E-1,3.9975554E-1,1.0065467E0,3.2155627E-1,-5.598653E-1,9.850768E-2,7.764947E-1,4.6061397E-1,1.1141922E0,8.7750816E-1,-3.2232106E-2,-4.6581018E-1,-3.764483E-1,3.070454E-1,-8.1617236E-1,-9.998938E-1,8.349338E-1,1.167849E0,-1.8753394E-1,7.139273E-1,1.1941074E0,1.1791536E0,-3.504848E-2,5.214748E-1,-5.57736E-1,-9.962173E-1,-3.0979243E-1,1.6205499E-1,1.1992786E0,-1.1785445E0,-7.604829E-2,-4.2904854E-1,1.3689404E-2,1.0803539E0,5.2606416E-1,4.7893116E-1,3.6774802E-1,-9.6624726E-1,9.302079E-1,9.0133184E-1,-7.4519074E-1,1.1377969E0,5.3761363E-1,-5.6718986E-2,1.3241454E0,-3.5501638E-1,8.432596E-1,-7.6117224E-1,8.1342715E-1,1.8742691E-1,-1.0710413E0,-1.2626641E0,-5.931873E-1,5.4251236E-1,-4.2511815E-1,1.4246686E-1,-1.7576542E-1,3.753865E-1,2.5512757E-2,-1.3624088E-1,-4.9237233E-1,2.3731767E-1,-2.111014E-1,8.389288E-2,3.3483836E-1,7.544294E-2,3.4230182E-1,2.0883267E-1,1.0144689E-2,-4.589273E-1,6.9980346E-2,-8.255508E-2,3.3128506E-1,1.2669902E-1,3.6093253E-1,2.2742976E-1,-4.8624256E-1,3.5085377E-1,-4.9244143E-2,-3.573686E-1,2.6323244E-1,3.2906914E-1,5.157466E-1,3.118435E-1,-2.7456593E-2,-3.2995254E-1,1.6393444E-1,6.536365E-2,3.6687735E-1,-1.7801714E-1,4.0714264E-1,-3.833525E-1,-5.7441838E-2,-3.845727E-1,-1.547544E-1,2.9228363E-2,-3.0375955E-1,-3.0234826E-1,-6.875045E-2],"categories":[],"categories_nodes":[],"categories_segments":[],"categories_sizes":[],"default_left":[0,0,0,0,0,0,0,0,0,0,0,0,0,0,0,0,0,0,0,0,0,0,0,0,0,0,0,0,0,0,0,0,0,0,0,0,0,0,0,0,0,0,0,0,0,0,0,0,0,0,0,0,0,0,0,0,0,0,0,0,0,0,0,0,0,0,0,0,0,0,0,0,0,0,0,0,0,0,0,0,0,0,0,0,0,0,0,0,0,0,0,0,0,0,0,0,0,0,0,0,0],"id":3,"left_children":[1,3,5,7,9,11,13,15,17,19,21,23,25,27,-1,29,31,33,35,37,39,41,43,45,47,49,51,53,55,57,59,61,63,-1,-1,65,67,69,-1,71,73,75,77,79,-1,81,83,-1,85,87,89,91,93,95,97,-1,99,-1,-1,-1,-1,-1,-1,-1,-1,-1,-1,-1,-1,-1,-1,-1,-1,-1,-1,-1,-1,-1,-1,-1,-1,-1,-1,-1,-1,-1,-1,-1,-1,-1,-1,-1,-1,-1,-1,-1,-1,-1,-1,-1,-1],"loss_changes":[4.2185214E2,5.2891617E1,7.206052E1,4.0612526E1,1.3758682E1,2.0946121E1,4.789981E1,3.8469246E1,1.735675E1,1.9335531E1,5.6137238E0,1.1435713E1,1.9482393E1,5.388791E1,0E0,2.100752E1,9.960722E0,2.5503101E0,1.1153069E1,2.1498871E-1,2.0589298E1,1.0551331E1,3.5846405E0,5.6549606E0,1.23492565E1,1.2839285E1,1.3329154E1,1.5187698E1,1.2474391E2,3.353584E1,1.2121849E0,7.6635017E0,7.84143E0,0E0,0E0,2.128891E0,1.1602846E1,2.8580362E-1,0E0,9.700861E0,2.3599072E0,4.185568E0,7.362344E0,6.608124E0,0E0,5.5267134E0,6.196556E-1,0E0,1.3719335E0,3.5092957E0,6.3342266E0,1.4369025E1,3.479126E0,6.100464E-1,1.7750227E1,0E0,5.4818237E1,0E0,0E0,0E0,0E0,0E0,0E0,0E0,0E0,0E0,0E0,0E0,0E0,0E0,0E0,0E0,0E0,0E0,0E0,0E0,0E0,0E0,0E0,0E0,0E0,0E0,0E0,0E0,0E0,0E0,0E0,0E0,0E0,0E0,0E0,0E0,0E0,0E0,0E0,0E0,0E0,0E0,0E0,0E0,0E0],"parents":[2147483647,0,0,1,1,2,2,3,3,4,4,5,5,6,6,7,7,8,8,9,9,10,10,11,11,12,12,13,13,15,15,16,16,17,17,18,18,19,19,20,20,21,21,22,22,23,23,24,24,25,25,26,26,27,27,28,28,29,29,30,30,31,31,32,32,35,35,36,36,37,37,39,39,40,40,41,41,42,42,43,43,45,45,46,46,48,48,49,49,50,50,51,51,52,52,53,53,54,54,56,56],"right_children":[2,4,6,8,10,12,14,16,18,20,22,24,26,28,-1,30,32,34,36,38,40,42,44,46,48,50,52,54,56,58,60,62,64,-1,-1,66,68,70,-1,72,74,76,78,80,-1,82,84,-1,86,88,90,92,94,96,98,-1,100,-1,-1,-1,-1,-1,-1,-1,-1,-1,-1,-1,-1,-1,-1,-1,-1,-1,-1,-1,-1,-1,-1,-1,-1,-1,-1,-1,-1,-1,-1,-1,-1,-1,-1,-1,-1,-1,-1,-1,-1,-1,-1,-1,-1],"split_conditions":[4.918033E-2,9.765998E-2,3.876923E-1,3.817134E-3,4.061716E-1,1.3333334E-1,3.6065573E-1,8.598238E-1,3.011194E-1,9.9762285E-1,3.37917E-2,8.7477946E-1,4.1496295E-2,4.859623E-2,-3.764483E-1,8.411591E-3,7.5013345E-1,5.5847326E-3,6.521739E-2,7.6792926E-2,3.817134E-3,5.8220625E-1,3.61735E-2,8.591685E-3,4.0209872E-1,5.9183454E-3,6.703169E-2,5.415385E-1,9.52381E-2,9.924423E-1,1.195596E-1,2.2344401E-1,1.5124968E-2,-4.2904854E-1,1.3689404E-2,2.4998361E-2,1.0786198E-1,4.245521E-1,3.6774802E-1,7.5013345E-1,4.3758657E-2,2.3815934E-1,5.9183454E-3,3.2786883E-2,5.3761363E-1,5.5847326E-3,1.6265236E-1,-3.5501638E-1,7.985933E-1,1.2334132E-1,4.859623E-2,1.8798836E-3,3.817134E-3,3.114754E-1,2.620796E-1,5.4251236E-1,9.765998E-2,1.4246686E-1,-1.7576542E-1,3.753865E-1,2.5512757E-2,-1.3624088E-1,-4.9237233E-1,2.3731767E-1,-2.111014E-1,8.389288E-2,3.3483836E-1,7.544294E-2,3.4230182E-1,2.0883267E-1,1.0144689E-2,-4.589273E-1,6.9980346E-2,-8.255508E-2,3.3128506E-1,1.2669902E-1,3.6093253E-1,2.2742976E-1,-4.8624256E-1,3.5085377E-1,-4.9244143E-2,-3.573686E-1,2.6323244E-1,3.2906914E-1,5.157466E-1,3.118435E-1,-2.7456593E-2,-3.2995254E-1,1.6393444E-1,6.536365E-2,3.6687735E-1,-1.7801714E-1,4.0714264E-1,-3.833525E-1,-5.7441838E-2,-3.845727E-1,-1.547544E-1,2.9228363E-2,-3.0375955E-1,-3.0234826E-1,-6.875045E-2],"split_indices":[0,6,12,7,4,8,0,20,4,13,2,14,11,6,0,16,5,1,11,4,7,8,0,2,3,18,2,12,6,23,10,1,0,0,0,2,2,3,0,5,2,6,18,0,0,1,6,0,13,2,6,24,7,0,5,0,6,0,0,0,0,0,0,0,0,0,0,0,0,0,0,0,0,0,0,0,0,0,0,0,0,0,0,0,0,0,0,0,0,0,0,0,0,0,0,0,0,0,0,0,0],"split_type":[0,0,0,0,0,0,0,0,0,0,0,0,0,0,0,0,0,0,0,0,0,0,0,0,0,0,0,0,0,0,0,0,0,0,0,0,0,0,0,0,0,0,0,0,0,0,0,0,0,0,0,0,0,0,0,0,0,0,0,0,0,0,0,0,0,0,0,0,0,0,0,0,0,0,0,0,0,0,0,0,0,0,0,0,0,0,0,0,0,0,0,0,0,0,0,0,0,0,0,0,0],"sum_hessian":[1.4454736E3,5.993739E2,8.460997E2,3.5751926E2,2.4185463E2,1.05349655E2,7.4075006E2,1.993648E2,1.5815445E2,4.070335E1,2.0115128E2,4.0393692E1,6.495597E1,6.5391986E2,8.68302E1,1.6289151E2,3.647329E1,4.5241027E0,1.5363036E2,1.9081022E1,2.162233E1,3.513032E1,1.6602097E2,3.0139078E1,1.0254611E1,3.1632969E1,3.3322998E1,1.4740565E2,5.065142E2,1.4113785E2,2.175367E1,2.4087465E1,1.2385826E1,2.9444685E0,1.579634E0,8.421637E1,6.941398E1,2.2000175E0,1.6881004E1,1.2823755E1,8.798574E0,3.1470612E1,3.6597095E0,1.5438472E2,1.1636244E1,3.228553E0,2.6910526E1,4.2936068E0,5.9610043E0,5.5671935E0,2.6065775E1,1.3850768E1,1.947223E1,8.745527E1,5.9950382E1,2.5395687E1,4.811185E2,9.977207E1,4.1365765E1,2.0666033E1,1.0876381E0,1.0160872E1,1.3926593E1,5.0913496E0,7.2944765E0,3.9787633E0,8.02376E1,4.896069E1,2.045329E1,1.0996164E0,1.100401E0,8.537622E0,4.2861333E0,1.0370008E0,7.7615733E0,1.3091041E1,1.8379572E1,1.3964498E0,2.2632596E0,1.508126E2,3.5721023E0,1.3336676E0,1.8948854E0,1.9480383E1,7.4301434E0,4.834252E0,1.1267526E0,4.5481386E0,1.0190549E0,1.1244505E1,1.4821271E1,8.60164E0,5.2491283E0,1.5398904E1,4.073326E0,8.455973E1,2.8955402E0,2.2939377E1,3.7011005E1,1.2003106E2,3.6108743E2],"tree_param":{"num_deleted":"0","num_feature":"31","num_nodes":"101","size_leaf_vector":"1"}},{"base_weights":[6.0089827E-3,5.725604E-1,-3.343938E-1,3.497963E-1,8.557262E-1,-1.6048695E-1,-7.5773174E-1,-3.83471E-1,4.8913696E-1,6.873402E-1,1.1204038E0,-7.537053E-2,-3.490793E-1,-9.4883364E-1,1.28233E-1,-7.812154E-1,3.903306E-1,9.108982E-1,2.1436614E-1,-8.0985016E-1,7.4344057E-1,4.1647503E-1,3.465745E-1,-2.9269445E-1,3.0839255E-1,-1.0942895E0,-3.3669305E-1,-9.083449E-1,9.1096187E-1,5.632753E-1,-1.033222E0,-1.1007869E0,7.45009E-1,1.1413568E0,3.253943E-1,2.9572964E-1,-1.3590231E0,1.0060331E-2,-3.5386765E-1,7.777097E-1,-3.7007883E-1,2.728891E-1,-2.4346401E-1,-4.866059E-1,2.7481496E-1,-5.594327E-1,5.89344E-1,-1.1157992E0,2.8308166E-2,1.5374187E-1,-3.7808263E-1,-3.7693954E-1,5.866556E-1,-3.1605658E-1,1.3189746E0,-1.3235724E-1,3.2384986E-1,-3.6424538E-1,2.5691214E-1,-1.02970295E-1,-3.9068165E-1,5.568156E-2,3.2005128E-1,4.5807555E-2,3.6599278E-1,-1.4690779E-1,3.0261415E-1,-1.04117475E-1,1.55503E-1,-5.5906093E-1,-7.365864E-2,1.5308796E-1,2.874558E-1,-3.1892147E-2,-2.557629E-1,6.936652E-1,-3.9589796E-3,-1.1353815E-2,-3.8976997E-1,-3.6270816E-2,2.2336002E-1,-3.819254E-1,-2.904985E-1,-2.422342E-1,3.1911784E-1,-2.540582E-1,2.3496449E-1,4.1926757E-1,-2.2686772E-1,5.004918E-1,-2.2918239E-1],"categories":[],"categories_nodes":[],"categories_segments":[],"categories_sizes":[],"default_left":[0,0,0,0,0,0,0,0,0,0,0,0,0,0,0,0,0,0,0,0,0,0,0,0,0,0,0,0,0,0,0,0,0,0,0,0,0,0,0,0,0,0,0,0,0,0,0,0,0,0,0,0,0,0,0,0,0,0,0,0,0,0,0,0,0,0,0,0,0,0,0,0,0,0,0,0,0,0,0,0,0,0,0,0,0,0,0,0,0,0,0],"id":4,"left_children":[1,3,5,7,9,11,13,15,17,19,21,23,-1,25,27,29,31,33,35,37,39,41,-1,43,45,47,49,51,53,55,57,59,61,63,65,67,69,-1,-1,71,-1,-1,-1,73,75,77,79,81,83,85,-1,-1,87,-1,89,-1,-1,-1,-1,-1,-1,-1,-1,-1,-1,-1,-1,-1,-1,-1,-1,-1,-1,-1,-1,-1,-1,-1,-1,-1,-1,-1,-1,-1,-1,-1,-1,-1,-1,-1,-1],"loss_changes":[2.5223404E2,3.0665009E1,6.002832E1,2.8431923E1,8.831894E0,4.9466286E1,4.035501E1,1.406321E1,2.677546E1,1.1879181E1,1.5346909E0,4.47981E1,0E0,1.704663E1,3.575123E1,1.0698799E1,9.199173E0,1.19752655E1,1.8609741E1,1.7007968E0,9.762642E0,4.0326815E0,0E0,3.7853214E1,4.7703297E1,3.836914E0,1.7857586E1,1.06356325E1,2.144715E1,3.255791E0,9.757278E0,7.930565E-2,2.2135968E0,4.886162E0,1.5666887E1,1.964894E1,3.5715532E0,0E0,0E0,5.7047577E0,0E0,0E0,0E0,3.551199E1,5.16273E1,1.8484997E1,1.6322277E1,2.3544312E0,4.2667217E0,1.7267715E1,0E0,0E0,5.711055E0,0E0,1.667437E1,0E0,0E0,0E0,0E0,0E0,0E0,0E0,0E0,0E0,0E0,0E0,0E0,0E0,0E0,0E0,0E0,0E0,0E0,0E0,0E0,0E0,0E0,0E0,0E0,0E0,0E0,0E0,0E0,0E0,0E0,0E0,0E0,0E0,0E0,0E0,0E0],"parents":[2147483647,0,0,1,1,2,2,3,3,4,4,5,5,6,6,7,7,8,8,9,9,10,10,11,11,13,13,14,14,15,15,16,16,17,17,18,18,19,19,20,20,21,21,23,23,24,24,25,25,26,26,27,27,28,28,29,29,30,30,31,31,32,32,33,33,34,34,35,35,36,36,39,39,43,43,44,44,45,45,46,46,47,47,48,48,49,49,52,52,54,54],"right_children":[2,4,6,8,10,12,14,16,18,20,22,24,-1,26,28,30,32,34,36,38,40,42,-1,44,46,48,50,52,54,56,58,60,62,64,66,68,70,-1,-1,72,-1,-1,-1,74,76,78,80,82,84,86,-1,-1,88,-1,90,-1,-1,-1,-1,-1,-1,-1,-1,-1,-1,-1,-1,-1,-1,-1,-1,-1,-1,-1,-1,-1,-1,-1,-1,-1,-1,-1,-1,-1,-1,-1,-1,-1,-1,-1,-1],"split_conditions":[3.2786883E-2,3.817134E-3,1.521739E-1,2.620796E-1,9.765998E-2,3.6065573E-1,8.411591E-3,6.0343E-1,9.9762285E-1,3.011194E-1,2.556145E-3,3.817134E-3,-3.490793E-1,2.3815934E-1,2.6952252E-1,3.846154E-1,2.4998361E-2,8.595564E-1,2.0441797E-1,6E-1,6.953846E-1,3.029858E-1,3.465745E-1,6.670828E-2,2.620796E-1,2.4943535E-1,3.8774186E-1,9.169231E-1,5.279786E-1,4.061716E-1,1.7760995E-1,2.0640577E-1,4.3693773E-2,1.7707707E-2,6.7646414E-2,4.859623E-2,6.0343E-1,1.0060331E-2,-3.5386765E-1,1.8798836E-3,-3.7007883E-1,2.728891E-1,-2.4346401E-1,4.7076923E-1,8.695652E-2,4.824037E-1,4.859623E-2,6.703169E-2,3.817134E-3,5.9005093E-2,-3.7808263E-1,-3.7693954E-1,2.550737E-1,-3.1605658E-1,6.150892E-1,-1.3235724E-1,3.2384986E-1,-3.6424538E-1,2.5691214E-1,-1.02970295E-1,-3.9068165E-1,5.568156E-2,3.2005128E-1,4.5807555E-2,3.6599278E-1,-1.4690779E-1,3.0261415E-1,-1.04117475E-1,1.55503E-1,-5.5906093E-1,-7.365864E-2,1.5308796E-1,2.874558E-1,-3.1892147E-2,-2.557629E-1,6.936652E-1,-3.9589796E-3,-1.1353815E-2,-3.8976997E-1,-3.6270816E-2,2.2336002E-1,-3.819254E-1,-2.904985E-1,-2.422342E-1,3.1911784E-1,-2.540582E-1,2.3496449E-1,4.1926757E-1,-2.2686772E-1,5.004918E-1,-2.2918239E-1],"split_indices":[0,7,11,5,6,0,16,4,13,4,9,7,0,6,8,12,2,15,2,3,12,8,0,11,5,2,20,12,12,4,11,8,11,2,10,6,4,0,0,24,0,0,0,12,11,26,6,2,7,2,0,0,0,0,8,0,0,0,0,0,0,0,0,0,0,0,0,0,0,0,0,0,0,0,0,0,0,0,0,0,0,0,0,0,0,0,0,0,0,0,0],"split_type":[0,0,0,0,0,0,0,0,0,0,0,0,0,0,0,0,0,0,0,0,0,0,0,0,0,0,0,0,0,0,0,0,0,0,0,0,0,0,0,0,0,0,0,0,0,0,0,0,0,0,0,0,0,0,0,0,0,0,0,0,0,0,0,0,0,0,0,0,0,0,0,0,0,0,0,0,0,0,0,0,0,0,0,0,0,0,0,0,0,0,0],"sum_hessian":[1.3058973E3,4.8988022E2,8.1601715E2,2.7543393E2,2.1444627E2,5.793853E2,2.3663185E2,4.3702343E1,2.3173158E2,1.3326251E2,8.118378E1,5.350593E2,4.432597E1,1.9458835E2,4.204351E1,2.88589E1,1.4843444E1,9.0501144E1,1.4123044E2,4.3277946E0,1.2893471E2,4.439967E0,7.6743805E1,3.417593E2,1.933E2,1.5659164E2,3.79967E1,1.801953E1,2.402398E1,4.360398E0,2.4498503E1,2.4480174E0,1.2395427E1,6.425898E1,2.6242163E1,1.3505832E2,6.1721272E0,1.5960826E0,2.7317119E0,1.27334175E2,1.6005338E0,3.352803E0,1.0871643E0,2.5482954E2,8.692977E1,4.703215E1,1.4626785E2,1.536536E2,2.938053E0,2.5362434E1,1.2634264E1,1.4745503E1,3.2740266E0,3.8594701E0,2.0164509E1,1.5295529E0,2.8308446E0,2.2683962E1,1.814541E0,1.0822915E0,1.3657258E0,5.1026673E0,7.292759E0,4.9502244E0,5.9308758E1,1.2096458E1,1.4145705E1,3.4598255E1,1.0046006E2,3.7840283E0,2.388099E0,5.2850956E1,7.448322E1,1.2559543E2,1.2923412E2,9.89612E0,7.703365E1,2.8200745E1,1.8831408E1,2.6268255E1,1.19999596E2,7.065917E1,8.299442E1,1.747611E0,1.1904418E0,9.6606455E0,1.570179E1,2.0159643E0,1.2580624E0,1.7438847E1,2.7256622E0],"tree_param":{"num_deleted":"0","num_feature":"31","num_nodes":"91","size_leaf_vector":"1"}},{"base_weights":[2.1276292E-3,4.7535366E-1,-2.705014E-1,2.9666293E-1,7.884717E-1,1.8517812E-1,-4.0630427E-1,7.4663293E-1,5.3057093E-2,3.0273247E-1,8.950487E-1,4.8223394E-1,-6.3741463E-1,-6.4003456E-1,-5.5845913E-2,4.4310364E-1,8.883805E-1,-2.7364796E-1,5.9840804E-1,3.174448E-1,-2.535291E-1,9.9878204E-1,3.8524047E-1,6.443421E-1,-1.012494E0,5.7005364E-1,-9.2287856E-1,-7.5466603E-1,1.5246052E-1,9.68959E-2,-3.4462565E-1,-5.798152E-1,7.627326E-1,9.2522293E-1,-1.8191327E-1,1.9886408E-2,-9.690675E-1,7.865086E-1,-1.402999E-1,-7.3036075E-1,6.7025095E-1,1.0228034E0,-4.720926E-2,8.511492E-1,-7.180958E-1,1.8900087E-1,1.0520512E0,2.5199022E-2,-3.3585352E-1,-2.854461E-1,1.1466873E0,-1.0439008E0,2.1642096E-1,-5.956744E-1,-1.0914532E0,-6.2618715E-1,6.124382E-1,-8.2416005E-2,1.0675951E0,1.8006894E-1,-3.8936257E-1,2.8751695E-1,-6.497027E-2,7.767701E-2,2.9179972E-1,-1.5640219E-1,1.3446294E-1,-5.3774697E-1,-1.6479708E-2,1.16727024E-1,3.1096342E-1,-2.005212E-1,2.1250054E-1,-4.4440302E-1,-4.4611234E-2,2.7697983E-1,-9.554152E-2,3.1124276E-1,2.734262E-2,2.8254983E-1,-4.2945493E-2,-4.4942477E-1,1.10590406E-1,-1.2109702E-1,2.70038E-1,1.0050234E-1,4.044286E-1,4.9646986E-1,-2.204247E-1,-3.4491593E-1,2.5921947E-1,-2.881921E-1,-8.811038E-2,1.4826349E-2,-3.322165E-1,4.295197E-1,-3.1991097E-1,-1.9888718E-1,2.9411605E-1,7.30043E-2,-1.736966E-1,9.0860344E-2,5.3325707E-1],"categories":[],"categories_nodes":[],"categories_segments":[],"categories_sizes":[],"default_left":[0,0,0,0,0,0,0,0,0,0,0,0,0,0,0,0,0,0,0,0,0,0,0,0,0,0,0,0,0,0,0,0,0,0,0,0,0,0,0,0,0,0,0,0,0,0,0,0,0,0,0,0,0,0,0,0,0,0,0,0,0,0,0,0,0,0,0,0,0,0,0,0,0,0,0,0,0,0,0,0,0,0,0,0,0,0,0,0,0,0,0,0,0,0,0,0,0,0,0,0,0,0,0],"id":5,"left_children":[1,3,5,7,9,11,13,15,17,19,21,23,25,27,29,31,33,35,37,-1,39,41,43,45,47,49,51,53,55,57,-1,59,61,63,-1,65,67,69,71,73,75,77,-1,79,81,83,85,-1,-1,-1,87,89,-1,91,93,95,97,99,101,-1,-1,-1,-1,-1,-1,-1,-1,-1,-1,-1,-1,-1,-1,-1,-1,-1,-1,-1,-1,-1,-1,-1,-1,-1,-1,-1,-1,-1,-1,-1,-1,-1,-1,-1,-1,-1,-1,-1,-1,-1,-1,-1,-1],"loss_changes":[1.5213908E2,2.3883247E1,4.637572E1,3.0217602E1,7.805336E0,4.2451828E1,4.7205566E1,3.7743225E0,3.226206E1,1.2698883E1,6.354019E0,3.1493822E1,1.6447056E1,3.1537094E1,3.8813057E1,1.1177364E1,4.1428566E0,2.3157217E1,9.532257E0,0E0,8.349337E0,3.0840988E0,1.2522944E1,2.1232159E1,1.601017E0,9.382267E0,8.263004E0,1.5539368E1,1.633627E1,3.5654034E1,0E0,7.884037E0,5.0836964E0,1.7672195E0,0E0,1.8938234E1,2.5240831E1,4.982174E0,7.021385E0,5.129495E0,1.9441447E0,1.3167572E0,0E0,1.645113E0,6.843569E0,2.3860773E1,1.2430687E1,0E0,0E0,0E0,8.202101E0,8.173103E0,0E0,2.25961E1,1.7956085E0,1.6958271E1,1.4027078E1,2.8191431E1,1.679752E1,0E0,0E0,0E0,0E0,0E0,0E0,0E0,0E0,0E0,0E0,0E0,0E0,0E0,0E0,0E0,0E0,0E0,0E0,0E0,0E0,0E0,0E0,0E0,0E0,0E0,0E0,0E0,0E0,0E0,0E0,0E0,0E0,0E0,0E0,0E0,0E0,0E0,0E0,0E0,0E0,0E0,0E0,0E0,0E0],"parents":[2147483647,0,0,1,1,2,2,3,3,4,4,5,5,6,6,7,7,8,8,9,9,10,10,11,11,12,12,13,13,14,14,15,15,16,16,17,17,18,18,20,20,21,21,22,22,23,23,24,24,25,25,26,26,27,27,28,28,29,29,31,31,32,32,33,33,35,35,36,36,37,37,38,38,39,39,40,40,41,41,43,43,44,44,45,45,46,46,50,50,51,51,53,53,54,54,55,55,56,56,57,57,58,58],"right_children":[2,4,6,8,10,12,14,16,18,20,22,24,26,28,30,32,34,36,38,-1,40,42,44,46,48,50,52,54,56,58,-1,60,62,64,-1,66,68,70,72,74,76,78,-1,80,82,84,86,-1,-1,-1,88,90,-1,92,94,96,98,100,102,-1,-1,-1,-1,-1,-1,-1,-1,-1,-1,-1,-1,-1,-1,-1,-1,-1,-1,-1,-1,-1,-1,-1,-1,-1,-1,-1,-1,-1,-1,-1,-1,-1,-1,-1,-1,-1,-1,-1,-1,-1,-1,-1,-1],"split_conditions":[3.2786883E-2,9.765998E-2,4.347826E-2,4.347826E-2,4.061716E-1,9.3899643E-1,5.5847326E-3,5.9183454E-3,6.7646414E-2,9.9762285E-1,5.3333336E-1,5.9384614E-1,2.1361858E-2,2.636272E-1,3.114754E-1,5.0131332E-2,9.050469E-1,7.061932E-1,9.944153E-1,3.174448E-1,3.817134E-3,4.7619048E-1,4.4885308E-1,9.765998E-2,7.118908E-2,5.9183454E-3,2.3770492E-1,1.5096973E-1,6.703169E-2,3.3777484E-1,-3.4462565E-1,7.334151E-3,1E0,7.777936E-3,-1.8191327E-1,1.8798836E-3,3.4657863E-1,1.8798836E-3,6.0343E-1,4.2378893E-1,3.147953E-1,2.3770492E-1,-4.720926E-2,3.8959908E-1,7.454835E-2,1.8798836E-3,1.4684615E-3,2.5199022E-2,-3.3585352E-1,-2.854461E-1,5.6658145E-3,2.252337E-2,2.1642096E-1,6.703169E-2,3.7289357E-1,5.4939624E-2,1.5154658E-1,7.1011007E-1,5.8577126E-1,1.8006894E-1,-3.8936257E-1,2.8751695E-1,-6.497027E-2,7.767701E-2,2.9179972E-1,-1.5640219E-1,1.3446294E-1,-5.3774697E-1,-1.6479708E-2,1.16727024E-1,3.1096342E-1,-2.005212E-1,2.1250054E-1,-4.4440302E-1,-4.4611234E-2,2.7697983E-1,-9.554152E-2,3.1124276E-1,2.734262E-2,2.8254983E-1,-4.2945493E-2,-4.4942477E-1,1.10590406E-1,-1.2109702E-1,2.70038E-1,1.0050234E-1,4.044286E-1,4.9646986E-1,-2.204247E-1,-3.4491593E-1,2.5921947E-1,-2.881921E-1,-8.811038E-2,1.4826349E-2,-3.322165E-1,4.295197E-1,-3.1991097E-1,-1.9888718E-1,2.9411605E-1,7.30043E-2,-1.736966E-1,9.0860344E-2,5.3325707E-1],"split_indices":[0,6,11,11,4,26,1,18,10,13,8,12,2,9,0,2,8,15,14,0,7,6,20,6,0,18,2,11,2,6,0,13,14,6,0,24,8,24,4,12,8,2,0,6,2,24,10,0,0,0,21,11,0,2,12,0,0,20,12,0,0,0,0,0,0,0,0,0,0,0,0,0,0,0,0,0,0,0,0,0,0,0,0,0,0,0,0,0,0,0,0,0,0,0,0,0,0,0,0,0,0,0,0],"split_type":[0,0,0,0,0,0,0,0,0,0,0,0,0,0,0,0,0,0,0,0,0,0,0,0,0,0,0,0,0,0,0,0,0,0,0,0,0,0,0,0,0,0,0,0,0,0,0,0,0,0,0,0,0,0,0,0,0,0,0,0,0,0,0,0,0,0,0,0,0,0,0,0,0,0,0,0,0,0,0,0,0,0,0,0,0,0,0,0,0,0,0,0,0,0,0,0,0,0,0,0,0,0,0],"sum_hessian":[1.1772375E3,4.300385E2,7.4719904E2,2.7503088E2,1.5500763E2,1.7147153E2,5.757275E2,9.5874306E1,1.7915659E2,2.8581947E1,1.2642569E2,1.2628211E2,4.518941E1,3.4488678E2,2.3084071E2,3.1833683E1,6.404063E1,1.12349335E2,6.680724E1,1.173851E1,1.6843435E1,1.0425354E2,2.2172153E1,1.14439674E2,1.1842439E1,8.450055E0,3.6739357E1,3.0134595E2,4.3540833E1,2.0333453E2,2.7506184E1,7.385049E0,2.4448635E1,6.2871994E1,1.1686306E0,7.968567E1,3.2663666E1,5.3196793E1,1.3610452E1,1.1247264E1,5.5961723E0,1.0224452E2,2.009018E0,1.57499485E1,6.422205E0,5.4753242E1,5.9686436E1,1.0721754E0,1.0770264E1,2.1436412E0,6.3064137E0,3.4560753E1,2.1786034E0,2.0658794E2,9.4758E1,1.6035196E1,2.7505636E1,1.7240265E2,3.0931892E1,2.8558683E0,4.5291805E0,2.0395176E1,4.053458E0,4.608368E0,5.8263626E1,3.510722E1,4.4578453E1,1.6678959E1,1.5984707E1,2.153084E1,3.1665955E1,8.520523E0,5.0899286E0,4.233973E0,7.013291E0,4.508616E0,1.0875564E0,1.0054747E2,1.6970518E0,1.4481918E1,1.26803E0,3.5183978E0,2.9038072E0,3.0100025E1,2.4653217E1,1.8064451E1,4.1621983E1,5.060013E0,1.2464007E0,3.312121E1,1.4395453E0,9.255021E1,1.1403773E2,1.2763383E0,9.348166E1,2.4285908E0,1.36066065E1,5.979059E0,2.1526577E1,1.044143E2,6.798835E1,1.5578026E1,1.5353867E1],"tree_param":{"num_deleted":"0","num_feature":"31","num_nodes":"103","size_leaf_vector":"1"}},{"base_weights":[1.8869212E-3,3.7051868E-1,-2.33536E-1,1.8214479E-1,7.2405547E-1,-7.49454E-2,-5.971482E-1,5.09258E-1,-1.3033538E-1,-3.5468352E-1,7.7934605E-1,1.6046105E-2,-3.2665387E-1,-9.442183E-1,-2.1664464E-1,2.543086E-1,3.5607517E-1,-5.1638806E-1,2.4468413E-1,5.782973E-1,-3.5725266E-1,5.9052E-1,1.0298234E0,1.3849336E-1,-6.3059705E-1,-1.0969754E0,-2.714329E-1,3.5906228E-1,-5.586145E-1,-2.0754407E-1,4.9176955E-1,-9.586445E-2,-1.1257067E0,-1.625848E-1,6.232076E-1,-6.815745E-3,2.3349401E-1,7.1636325E-1,-2.1903382E-1,-7.477339E-2,3.2639918E-1,-2.0449094E-2,4.9150804E-1,-7.52843E-1,5.109901E-1,-3.52477E-1,4.0741694E-1,-3.3396056E-1,1.1280932E0,-9.079048E-2,1.4651212E0,-7.3822236E-1,8.2396656E-1,2.1748646E-1,-1.6368222E-1,-1.00093946E-1,1.8683426E-1,-2.1246123E-1,1.0303727E-1,-5.0519806E-1,6.918287E-3,-2.8331167E-1,7.092074E-2,8.163564E-2,3.5075548E-1,1.3942282E-1,3.088625E-1,9.3561605E-2,-4.399332E-1,-2.4295692E-1,2.002904E-1,1.09359406E-1,-9.5544234E-2,-3.16149E-1,-1.0974485E-1,-1.5559788E-1,5.9823745E-1,-2.4743104E-1,4.8056895E-1,-2.4809651E-1,5.953818E-1,-2.2434357E-1,3.1025648E-1,-2.2903024E-1,5.749246E-1,5.1128954E-2,-2.947206E-1,5.007011E-1,-2.768372E-1],"categories":[],"categories_nodes":[],"categories_segments":[],"categories_sizes":[],"default_left":[0,0,0,0,0,0,0,0,0,0,0,0,0,0,0,0,0,0,0,0,0,0,0,0,0,0,0,0,0,0,0,0,0,0,0,0,0,0,0,0,0,0,0,0,0,0,0,0,0,0,0,0,0,0,0,0,0,0,0,0,0,0,0,0,0,0,0,0,0,0,0,0,0,0,0,0,0,0,0,0,0,0,0,0,0,0,0,0,0],"id":6,"left_children":[1,3,5,7,9,11,13,15,17,19,21,23,-1,25,27,29,-1,31,33,35,-1,37,39,41,43,45,47,49,51,53,55,57,59,61,63,-1,-1,65,67,69,-1,71,-1,73,75,-1,77,-1,79,81,83,85,87,-1,-1,-1,-1,-1,-1,-1,-1,-1,-1,-1,-1,-1,-1,-1,-1,-1,-1,-1,-1,-1,-1,-1,-1,-1,-1,-1,-1,-1,-1,-1,-1,-1,-1,-1,-1],"loss_changes":[9.315315E1,2.7728168E1,3.7729134E1,2.8099718E1,8.929718E0,4.2202545E1,2.6048286E1,2.2882679E1,2.0548773E1,6.743052E0,5.9340134E0,3.338935E1,0E0,1.03563E1,1.9125465E1,1.093565E1,0E0,1.7784698E1,1.1236586E1,5.395477E-1,0E0,8.430416E0,3.8154488E0,8.453074E1,9.754667E0,1.0347061E1,2.5419369E1,1.825931E1,1.5680599E1,1.11913185E1,7.2947645E0,1.1651745E1,1.8266376E1,1.1323867E1,6.8976517E0,0E0,0E0,5.0786057E0,8.20013E0,2.637925E0,0E0,3.7000565E1,0E0,6.7264404E0,1.1861612E1,0E0,8.515603E0,0E0,1.5372663E1,2.0610947E1,1.2114981E1,1.2203148E1,1.2538319E1,0E0,0E0,0E0,0E0,0E0,0E0,0E0,0E0,0E0,0E0,0E0,0E0,0E0,0E0,0E0,0E0,0E0,0E0,0E0,0E0,0E0,0E0,0E0,0E0,0E0,0E0,0E0,0E0,0E0,0E0,0E0,0E0,0E0,0E0,0E0,0E0],"parents":[2147483647,0,0,1,1,2,2,3,3,4,4,5,5,6,6,7,7,8,8,9,9,10,10,11,11,13,13,14,14,15,15,17,17,18,18,19,19,21,21,22,22,23,23,24,24,25,25,26,26,27,27,28,28,29,29,30,30,31,31,32,32,33,33,34,34,37,37,38,38,39,39,41,41,43,43,44,44,46,46,48,48,49,49,50,50,51,51,52,52],"right_children":[2,4,6,8,10,12,14,16,18,20,22,24,-1,26,28,30,-1,32,34,36,-1,38,40,42,44,46,48,50,52,54,56,58,60,62,64,-1,-1,66,68,70,-1,72,-1,74,76,-1,78,-1,80,82,84,86,88,-1,-1,-1,-1,-1,-1,-1,-1,-1,-1,-1,-1,-1,-1,-1,-1,-1,-1,-1,-1,-1,-1,-1,-1,-1,-1,-1,-1,-1,-1,-1,-1,-1,-1,-1,-1],"split_conditions":[4.918033E-2,9.765998E-2,1E0,9.9459505E-1,3.011194E-1,3.6065573E-1,5.0512177E-1,9.4594964E-4,1.8798836E-3,7.628555E-1,3.817134E-3,8E-1,-3.2665387E-1,5.3558844E-1,8.7422675E-1,2.556145E-3,3.5607517E-1,8.2644E-2,5.014605E-1,6.066486E-2,-3.5725266E-1,5.3333336E-1,2.556145E-3,6.047935E-1,1.4194679E-2,3.8466215E-1,1.15573525E-1,5.8577126E-1,3.8959908E-1,3.846154E-1,1.7027257E-2,6.329468E-2,1.5828206E-1,6.329468E-2,9.1497846E-2,-6.815745E-3,2.3349401E-1,1.8798836E-3,5.1483965E-1,4.3729144E-1,3.2639918E-1,6E-1,4.9150804E-1,5.014605E-1,9.8690584E-2,-3.52477E-1,2.0640577E-1,-3.3396056E-1,5.014605E-1,3.817134E-3,2.620796E-1,7.118908E-2,5.9183454E-3,2.1748646E-1,-1.6368222E-1,-1.00093946E-1,1.8683426E-1,-2.1246123E-1,1.0303727E-1,-5.0519806E-1,6.918287E-3,-2.8331167E-1,7.092074E-2,8.163564E-2,3.5075548E-1,1.3942282E-1,3.088625E-1,9.3561605E-2,-4.399332E-1,-2.4295692E-1,2.002904E-1,1.09359406E-1,-9.5544234E-2,-3.16149E-1,-1.0974485E-1,-1.5559788E-1,5.9823745E-1,-2.4743104E-1,4.8056895E-1,-2.4809651E-1,5.953818E-1,-2.2434357E-1,3.1025648E-1,-2.2903024E-1,5.749246E-1,5.1128954E-2,-2.947206E-1,5.007011E-1,-2.768372E-1],"split_indices":[0,6,20,25,4,0,1,0,24,13,7,3,0,8,13,9,0,11,5,2,0,8,9,3,27,9,2,12,6,12,5,9,2,9,2,0,0,24,12,12,0,3,0,5,2,0,8,0,5,7,5,0,18,0,0,0,0,0,0,0,0,0,0,0,0,0,0,0,0,0,0,0,0,0,0,0,0,0,0,0,0,0,0,0,0,0,0,0,0],"split_type":[0,0,0,0,0,0,0,0,0,0,0,0,0,0,0,0,0,0,0,0,0,0,0,0,0,0,0,0,0,0,0,0,0,0,0,0,0,0,0,0,0,0,0,0,0,0,0,0,0,0,0,0,0,0,0,0,0,0,0,0,0,0,0,0,0,0,0,0,0,0,0,0,0,0,0,0,0,0,0,0,0,0,0,0,0,0,0,0,0],"sum_hessian":[1.0713893E3,4.1733722E2,6.54052E2,2.7325488E2,1.4408232E2,4.5625922E2,1.977928E2,1.3319394E2,1.4006094E2,6.760846E0,1.3732149E2,4.195879E2,3.6671318E1,1.026661E2,9.51267E1,9.7781715E1,3.541222E1,6.8829506E1,7.1231445E1,3.341173E0,3.4196732E0,8.02109E1,5.711058E1,3.5344583E2,6.6142075E1,8.315508E1,1.9511019E1,3.543009E1,5.969661E1,3.3245823E1,6.45359E1,4.1408558E1,2.7420946E1,3.458765E1,3.6643795E1,1.0556186E0,2.2855542E0,6.9519394E1,1.0691508E1,2.8429828E0,5.4267597E1,3.204715E2,3.2974335E1,6.0051987E1,6.0900903E0,7.926698E1,3.8880951E0,1.2310966E1,7.2000537E0,2.5838894E1,9.591198E0,5.3245647E1,6.4509625E0,8.541338E0,2.4704485E1,8.628253E0,5.5907642E1,1.7042372E1,2.4366186E1,1.8139473E1,9.281472E0,1.1225383E1,2.3362268E1,2.3214317E1,1.3429479E1,3.9925526E1,2.9593864E1,8.025702E0,2.6658063E0,1.3828882E0,1.4600946E0,1.3974007E2,1.8073143E2,3.281174E1,2.7240246E1,3.978415E0,2.1116753E0,2.0661922E0,1.8219031E0,2.203896E0,4.9961576E0,1.6523777E1,9.315116E0,1.4987078E0,8.09249E0,1.1341853E1,4.1903793E1,4.3776693E0,2.0732932E0],"tree_param":{"num_deleted":"0","num_feature":"31","num_nodes":"89","size_leaf_vector":"1"}},{"base_weights":[7.573997E-4,3.2664317E-1,-1.7655607E-1,1.15845025E-1,6.314918E-1,-4.8337063E-1,-1.7117457E-2,-1.8105704E-1,3.614161E-1,3.196518E-1,8.035117E-1,-6.6242623E-1,-1.3866693E-1,4.1889554E-1,-2.0219755E-1,-1.1465623E0,-8.409381E-2,8.807018E-2,7.211664E-1,-1.5927611E-1,7.028623E-1,6.006209E-1,9.8167884E-1,-3.065986E-1,-8.374064E-1,4.9950397E-1,-5.648425E-1,-4.3610358E-1,2.0219657E-1,-3.838458E-1,-4.818494E-2,-2.0826443E-1,6.097252E-1,-5.2776086E-1,5.233963E-1,5.469435E-1,3.4647068E-1,7.127741E-1,-5.9560955E-1,7.952866E-1,-1.2433556E-1,3.5842866E-1,3.0154252E-1,1.0007855E0,2.6623424E-2,-4.3325844E-1,4.1982278E-1,-9.473769E-1,-2.645756E-1,7.091907E-1,-2.7073258E-1,-8.486277E-1,3.65294E-1,-5.468266E-1,-1.5485432E-2,4.7075623E-1,-2.8943372E-1,-1.5550423E-2,-2.7076027E-1,2.3976085E-1,-2.2371352E-1,2.8806674E-1,-2.2853474E-1,1.991613E-1,-3.8004515E-1,2.5635326E-1,-1.3071494E-1,-1.4760648E-1,2.946065E-1,1.3758793E-1,-3.0715054E-1,2.7276382E-1,2.5148913E-2,-2.9230303E-1,1.6365908E-1,1.5534468E-1,-3.5480678E-1,2.2421725E-1,3.3028883E-1,-2.1071522E-1,6.73232E-2,-1.2464312E-1,-3.2025844E-1,-1.7051964E-1,2.3482634E-1,4.0316433E-2,3.1730095E-1,2.0635538E-1,-3.302818E-1,-1.3627467E-1,3.5387856E-1,-5.544794E-2,-2.161951E-1,4.8629782E-1,-7.850808E-2,2.4352251E-1,-1.539103E-1],"categories":[],"categories_nodes":[],"categories_segments":[],"categories_sizes":[],"default_left":[0,0,0,0,0,0,0,0,0,0,0,0,0,0,0,0,0,0,0,0,0,0,0,0,0,0,0,0,0,0,0,0,0,0,0,0,0,0,0,0,0,0,0,0,0,0,0,0,0,0,0,0,0,0,0,0,0,0,0,0,0,0,0,0,0,0,0,0,0,0,0,0,0,0,0,0,0,0,0,0,0,0,0,0,0,0,0,0,0,0,0,0,0,0,0,0,0],"id":7,"left_children":[1,3,5,7,9,11,13,15,17,19,21,23,25,-1,27,29,31,33,35,37,39,41,43,45,47,49,51,53,55,-1,-1,57,59,61,63,65,-1,67,69,71,73,75,-1,77,-1,79,-1,81,83,85,-1,87,89,91,93,-1,95,-1,-1,-1,-1,-1,-1,-1,-1,-1,-1,-1,-1,-1,-1,-1,-1,-1,-1,-1,-1,-1,-1,-1,-1,-1,-1,-1,-1,-1,-1,-1,-1,-1,-1,-1,-1,-1,-1,-1,-1],"loss_changes":[5.6545204E1,2.2085346E1,3.0993423E1,1.5017905E1,7.2927094E0,1.3281727E1,1.0964883E2,8.657223E0,1.100682E1,9.599583E0,2.6652946E0,8.605625E0,2.0772448E1,0E0,3.513744E1,9.0245914E-1,7.540284E0,1.7731236E1,3.030819E0,9.477948E0,2.3085327E0,4.0167656E0,7.0223236E-1,1.1086141E1,5.723671E0,9.664114E0,1.2357632E1,1.0939262E1,9.216763E1,0E0,0E0,7.9608693E0,4.0160728E0,1.0294418E1,1.0559955E1,1.1397027E1,0E0,3.2048006E0,7.874772E0,2.041914E0,2.6778662E0,7.8584995E0,0E0,3.270073E-1,0E0,8.283646E0,0E0,4.6165314E0,5.74683E0,5.318904E0,0E0,1.4431623E1,8.123038E0,1.1574261E1,2.0575584E1,0E0,2.533776E1,0E0,0E0,0E0,0E0,0E0,0E0,0E0,0E0,0E0,0E0,0E0,0E0,0E0,0E0,0E0,0E0,0E0,0E0,0E0,0E0,0E0,0E0,0E0,0E0,0E0,0E0,0E0,0E0,0E0,0E0,0E0,0E0,0E0,0E0,0E0,0E0,0E0,0E0,0E0,0E0],"parents":[2147483647,0,0,1,1,2,2,3,3,4,4,5,5,6,6,7,7,8,8,9,9,10,10,11,11,12,12,14,14,15,15,16,16,17,17,18,18,19,19,20,20,21,21,22,22,23,23,24,24,25,25,26,26,27,27,28,28,31,31,32,32,33,33,34,34,35,35,37,37,38,38,39,39,40,40,41,41,43,43,45,45,47,47,48,48,49,49,51,51,52,52,53,53,54,54,56,56],"right_children":[2,4,6,8,10,12,14,16,18,20,22,24,26,-1,28,30,32,34,36,38,40,42,44,46,48,50,52,54,56,-1,-1,58,60,62,64,66,-1,68,70,72,74,76,-1,78,-1,80,-1,82,84,86,-1,88,90,92,94,-1,96,-1,-1,-1,-1,-1,-1,-1,-1,-1,-1,-1,-1,-1,-1,-1,-1,-1,-1,-1,-1,-1,-1,-1,-1,-1,-1,-1,-1,-1,-1,-1,-1,-1,-1,-1,-1,-1,-1,-1,-1],"split_conditions":[3.2786883E-2,3.817134E-3,4.061716E-1,5.014605E-1,5.9005093E-2,3.817134E-3,5.9994274E-1,3.011194E-1,5.5847326E-3,6.329468E-2,2.6952252E-1,6.25E-2,1E0,4.1889554E-1,6.0343E-1,1.3698551E-2,2.3815934E-1,1.8798836E-3,6.7646414E-2,4.2960588E-2,5.7198785E-2,9.765998E-2,3.1231856E-1,2.556145E-3,1.9911471E-1,2.1674128E-1,2.3815934E-1,7.5013345E-1,8E-1,-3.838458E-1,-4.818494E-2,1.2907228E-2,6.953846E-1,7.5E-1,3.809524E-1,6.468476E-2,3.4647068E-1,2.4998361E-2,4.2378893E-1,5.9556943E-1,4.5889476E-1,9.5267147E-1,3.0154252E-1,4.859623E-2,2.6623424E-2,9.1497846E-2,4.1982278E-1,3.8327944E-1,8.411591E-3,1.4684615E-3,-2.7073258E-1,3.7538463E-1,5.6454E-1,2E-1,1E0,4.7075623E-1,6E-1,-1.5550423E-2,-2.7076027E-1,2.3976085E-1,-2.2371352E-1,2.8806674E-1,-2.2853474E-1,1.991613E-1,-3.8004515E-1,2.5635326E-1,-1.3071494E-1,-1.4760648E-1,2.946065E-1,1.3758793E-1,-3.0715054E-1,2.7276382E-1,2.5148913E-2,-2.9230303E-1,1.6365908E-1,1.5534468E-1,-3.5480678E-1,2.2421725E-1,3.3028883E-1,-2.1071522E-1,6.73232E-2,-1.2464312E-1,-3.2025844E-1,-1.7051964E-1,2.3482634E-1,4.0316433E-2,3.1730095E-1,2.0635538E-1,-3.302818E-1,-1.3627467E-1,3.5387856E-1,-5.544794E-2,-2.161951E-1,4.8629782E-1,-7.850808E-2,2.4352251E-1,-1.539103E-1],"split_indices":[0,7,4,5,2,7,4,4,1,9,8,9,13,0,4,17,6,24,10,11,2,6,6,9,9,0,6,5,4,0,0,20,12,5,6,11,0,2,12,8,12,5,0,6,0,2,0,12,16,10,0,12,12,8,5,0,3,0,0,0,0,0,0,0,0,0,0,0,0,0,0,0,0,0,0,0,0,0,0,0,0,0,0,0,0,0,0,0,0,0,0,0,0,0,0,0,0],"split_type":[0,0,0,0,0,0,0,0,0,0,0,0,0,0,0,0,0,0,0,0,0,0,0,0,0,0,0,0,0,0,0,0,0,0,0,0,0,0,0,0,0,0,0,0,0,0,0,0,0,0,0,0,0,0,0,0,0,0,0,0,0,0,0,0,0,0,0,0,0,0,0,0,0,0,0,0,0,0,0,0,0,0,0,0,0,0,0,0,0,0,0,0,0,0,0,0,0],"sum_hessian":[9.7656464E2,3.4381754E2,6.3274713E2,2.0407962E2,1.3973793E2,2.1567764E2,4.1706946E2,9.250332E1,1.115763E2,5.06952E1,8.904273E1,1.4133812E2,7.433952E1,4.7531593E1,3.6953787E2,7.4541707E0,8.504915E1,6.4109406E1,4.7466892E1,2.279317E1,2.790203E1,4.3676514E1,4.5366215E1,4.749919E1,9.383893E1,2.9697437E1,4.4642086E1,2.340705E2,1.3546738E2,6.306248E0,1.1479226E0,7.273231E1,1.2316844E1,2.646233E1,3.764708E1,3.5477364E1,1.1989527E1,7.390021E0,1.5403151E1,2.513251E1,2.7695217E0,2.8499514E1,1.5177001E1,4.4297573E1,1.0686433E0,4.4910892E1,2.588298E0,7.817689E1,1.5662041E1,2.6263401E1,3.4340367E0,3.4273006E1,1.0369081E1,1.8505643E2,4.901407E1,3.5253185E1,1.00214195E2,6.0235077E1,1.2497231E1,1.1166274E1,1.1505699E0,3.1745296E0,2.32878E1,3.549131E1,2.1557696E0,2.711951E1,8.357853E0,1.1987245E0,6.191296E0,4.4288645E0,1.0974286E1,2.1423923E1,3.7085853E0,1.020302E0,1.7492195E0,2.643004E1,2.0694726E0,1.494796E1,2.9349611E1,3.1821278E1,1.3089615E1,1.5226841E1,6.2950047E1,1.2494702E1,3.1673386E0,1.0435722E1,1.582768E1,4.5907755E0,2.968223E1,5.388278E0,4.9808025E0,6.07025E1,1.2435393E2,5.6795864E0,4.3334484E1,1.6470566E1,8.374363E1],"tree_param":{"num_deleted":"0","num_feature":"31","num_nodes":"97","size_leaf_vector":"1"}},{"base_weights":[6.0063177E-3,-2.9915673E-1,1.4236586E-1,-4.416636E-1,2.986325E-2,3.6054912E-1,-5.574677E-3,-9.869691E-1,-3.0499667E-1,3.2859477E-1,-4.1068068E-1,-2.3936419E-1,3.3573475E-1,-4.6537992E-1,-1.1934422E0,-6.893334E-1,-9.727971E-2,1.0414748E0,1.4577632E-2,-6.9734067E-1,3.3697122E-1,5.363725E-2,-3.9037544E-1,3.715762E-1,-5.691719E-2,-8.527738E-1,2.7858192E-1,-3.1492016E-1,-3.7926814E-1,6.782374E-2,-9.6307564E-1,3.3032328E-1,-2.80236E-1,-9.351723E-2,1.2244343E0,-6.692815E-1,3.0275637E-1,-2.7488655E-1,-1.0170254E0,9.107219E-1,-3.0820298E-1,-5.6196418E-2,1.6270838E0,-6.283717E-1,-5.590999E-2,-3.4964135E-1,7.371774E-1,-5.7982314E-2,-3.010134E-1,2.4768437E-1,-2.2605084E-1,6.3338384E-2,-1.954872E-1,-2.6877403E-1,1.3565922E-1,-3.071959E-1,3.8721416E-2,-2.420307E-1,1.393217E-1,-1.2045846E-1,1.6839202E-1,2.568959E-1,5.218862E-1,1.8478543E-2,-3.327432E-1,3.0761752E-1,2.7433429E-2,-2.7736518E-1,6.2191825E-2,-3.396402E-1,3.3280883E-2,1.04493104E-1,3.5692394E-1,-2.2597049E-1,1.20158486E-1,-7.540185E-2,1.3588701E-1,3.0885226E-1,6.962184E-1,-2.0467015E-1,3.7131488E-1,4.0850997E-1,-4.583346E-2,-1.4313745E-1,1.13361225E-1,3.7057084E-1,7.570191E-2],"categories":[],"categories_nodes":[],"categories_segments":[],"categories_sizes":[],"default_left":[0,0,0,0,0,0,0,0,0,0,0,0,0,0,0,0,0,0,0,0,0,0,0,0,0,0,0,0,0,0,0,0,0,0,0,0,0,0,0,0,0,0,0,0,0,0,0,0,0,0,0,0,0,0,0,0,0,0,0,0,0,0,0,0,0,0,0,0,0,0,0,0,0,0,0,0,0,0,0,0,0,0,0,0,0,0,0],"id":8,"left_children":[1,3,5,7,9,-1,11,13,15,17,19,21,23,25,27,29,31,33,35,37,39,41,43,-1,45,47,49,51,-1,53,55,57,59,-1,61,63,65,67,69,71,73,75,77,79,81,83,85,-1,-1,-1,-1,-1,-1,-1,-1,-1,-1,-1,-1,-1,-1,-1,-1,-1,-1,-1,-1,-1,-1,-1,-1,-1,-1,-1,-1,-1,-1,-1,-1,-1,-1,-1,-1,-1,-1,-1,-1],"loss_changes":[3.6750328E1,1.280242E1,9.567656E1,1.388792E1,1.1107125E1,0E0,4.2897205E1,3.5054245E0,1.22020445E1,1.123098E1,7.550689E0,1.413726E1,7.754811E1,3.7919135E0,1.2419891E0,1.1206783E1,7.988565E0,4.1816196E0,7.275599E0,3.096694E0,4.032172E0,1.8995214E1,1.6733105E1,0E0,3.5884644E1,6.360183E-1,3.4318419E0,7.2178566E-1,0E0,6.0387154E0,2.7629318E0,5.0557575E0,7.495673E0,0E0,1.1128979E0,3.5891333E0,3.8670378E0,3.9944587E0,1.9252014E0,4.670596E-1,2.0419533E0,1.0369057E1,5.8312416E-1,1.3205055E1,1.2384949E1,1.0629388E1,9.734386E0,0E0,0E0,0E0,0E0,0E0,0E0,0E0,0E0,0E0,0E0,0E0,0E0,0E0,0E0,0E0,0E0,0E0,0E0,0E0,0E0,0E0,0E0,0E0,0E0,0E0,0E0,0E0,0E0,0E0,0E0,0E0,0E0,0E0,0E0,0E0,0E0,0E0,0E0,0E0,0E0],"parents":[2147483647,0,0,1,1,2,2,3,3,4,4,6,6,7,7,8,8,9,9,10,10,11,11,12,12,13,13,14,14,15,15,16,16,17,17,18,18,19,19,20,20,21,21,22,22,24,24,25,25,26,26,27,27,29,29,30,30,31,31,32,32,34,34,35,35,36,36,37,37,38,38,39,39,40,40,41,41,42,42,43,43,44,44,45,45,46,46],"right_children":[2,4,6,8,10,-1,12,14,16,18,20,22,24,26,28,30,32,34,36,38,40,42,44,-1,46,48,50,52,-1,54,56,58,60,-1,62,64,66,68,70,72,74,76,78,80,82,84,86,-1,-1,-1,-1,-1,-1,-1,-1,-1,-1,-1,-1,-1,-1,-1,-1,-1,-1,-1,-1,-1,-1,-1,-1,-1,-1,-1,-1,-1,-1,-1,-1,-1,-1,-1,-1,-1,-1,-1,-1],"split_conditions":[4.061716E-1,9.8690584E-2,6E-1,3.011194E-1,1.4754099E-1,3.6054912E-1,6.0343E-1,9.903618E-1,5.9183454E-3,1.3910398E-1,6.7646414E-2,6.521739E-2,8E-1,1.8798836E-3,1.1921874E-3,5.808883E-3,3.846154E-1,1.7027257E-2,7.032572E-2,1.4198157E-1,1.3043961E-1,4.3693773E-2,6.7646414E-2,3.715762E-1,8.1059283E-1,4.3693773E-2,1.9689642E-2,9.765998E-2,-3.7926814E-1,1.3682608E-1,9.1497846E-2,3.5076922E-1,1.9911471E-1,-9.351723E-2,5.507692E-1,7.334151E-3,2.173913E-2,1.0493641E-2,8.411591E-3,4.0353552E-1,4.018508E-1,6.047935E-1,2.8619583E-4,3.2062304E-1,1.3333334E-1,8.411591E-3,1E0,-5.7982314E-2,-3.010134E-1,2.4768437E-1,-2.2605084E-1,6.3338384E-2,-1.954872E-1,-2.6877403E-1,1.3565922E-1,-3.071959E-1,3.8721416E-2,-2.420307E-1,1.393217E-1,-1.2045846E-1,1.6839202E-1,2.568959E-1,5.218862E-1,1.8478543E-2,-3.327432E-1,3.0761752E-1,2.7433429E-2,-2.7736518E-1,6.2191825E-2,-3.396402E-1,3.3280883E-2,1.04493104E-1,3.5692394E-1,-2.2597049E-1,1.20158486E-1,-7.540185E-2,1.3588701E-1,3.0885226E-1,6.962184E-1,-2.0467015E-1,3.7131488E-1,4.0850997E-1,-4.583346E-2,-1.4313745E-1,1.13361225E-1,3.7057084E-1,7.570191E-2],"split_indices":[4,2,4,4,0,0,4,13,18,2,10,11,4,24,11,0,12,5,8,8,11,11,10,0,4,11,0,6,0,8,2,12,9,0,12,13,11,15,16,10,8,3,29,9,10,16,4,0,0,0,0,0,0,0,0,0,0,0,0,0,0,0,0,0,0,0,0,0,0,0,0,0,0,0,0,0,0,0,0,0,0,0,0,0,0,0,0],"split_type":[0,0,0,0,0,0,0,0,0,0,0,0,0,0,0,0,0,0,0,0,0,0,0,0,0,0,0,0,0,0,0,0,0,0,0,0,0,0,0,0,0,0,0,0,0,0,0,0,0,0,0,0,0,0,0,0,0,0,0,0,0,0,0,0,0,0,0,0,0,0,0,0,0,0,0,0,0,0,0,0,0,0,0,0,0,0,0],"sum_hessian":[8.811453E2,2.717636E2,6.093817E2,1.8939117E2,8.237245E1,7.3793274E1,5.3558844E2,3.670706E1,1.5268411E2,4.923825E1,3.3134197E1,3.1803802E2,2.1755043E2,1.1332646E1,2.5374414E1,5.2754444E1,9.992966E1,1.4348269E1,3.488998E1,2.3999681E1,9.134516E0,1.0838585E2,2.0965218E2,6.528396E1,1.5226646E2,7.3559933E0,3.9766533E0,2.2983394E0,2.3076075E1,1.420802E1,3.8546425E1,2.9702919E1,7.022674E1,1.6250844E0,1.2723186E1,9.951719E0,2.4938263E1,1.1139294E1,1.2860388E1,4.6170244E0,4.5174913E0,1.0221506E2,6.1707883E0,1.2197759E2,8.767459E1,1.1166391E2,4.060256E1,1.7920214E0,5.563972E0,2.7298245E0,1.2468288E0,1.0425193E0,1.2558199E0,3.6715446E0,1.0536476E1,3.656931E1,1.9771168E0,2.603852E0,2.7099068E1,6.1836998E1,8.389745E0,8.973518E0,3.749667E0,4.0620966E0,5.8896227E0,4.770789E0,2.0167473E1,4.3547273E0,6.7845664E0,1.1666157E1,1.1942308E0,2.2765813E0,2.3404431E0,2.7364225E0,1.7810688E0,7.425985E1,2.795521E1,4.6494637E0,1.5213243E0,1.1917225E2,2.8053398E0,4.772633E0,8.290196E1,9.5307205E1,1.6356707E1,1.926475E1,2.133781E1],"tree_param":{"num_deleted":"0","num_feature":"31","num_nodes":"87","size_leaf_vector":"1"}},{"base_weights":[1.1084937E-2,4.8134822E-2,-3.0856052E-1,1.4846379E-1,-2.8282878E-1,-9.262977E-3,4.8054236E-1,-5.8316267E-1,1.82062E-1,-2.3503833E-1,2.558755E-1,2.4992701E-1,9.769219E-1,-7.836803E-1,6.7015216E-2,5.04874E-1,-4.4513437E-1,-4.8649177E-1,1.9368468E-1,4.2452272E-2,6.09297E-1,3.8936695E-1,1.2297267E-1,1.2216141E0,2.9887363E-1,-8.544396E-1,1.512614E-1,-5.9758943E-1,8.7461287E-1,6.772186E-1,-7.249237E-1,-8.766587E-1,2.5297013E-1,4.9232315E-2,-2.1408379E-1,2.0742609E-1,-6.91808E-3,-7.100418E-2,1.0987444E-1,1.06314756E-1,2.9887864E-1,-3.7167847E-2,1.6717085E-1,-1.8515016E-1,3.8805822E-1,-1.8317278E-1,2.3759033E-1,-2.8118563E-1,1.6213084E-3,2.9507053E-1,-2.5230235E-1,2.9767907E-1,-2.8938517E-1,-2.7323693E-1,4.781023E-1,-1.2064842E-1,2.5302425E-1,1.2299344E-1,-3.427778E-1,-3.3542502E-1,2.679789E-1,-3.141331E-1,1.9462802E-1],"categories":[],"categories_nodes":[],"categories_segments":[],"categories_sizes":[],"default_left":[0,0,0,0,0,0,0,0,0,0,0,0,0,0,0,0,0,0,0,0,0,0,0,0,0,0,0,0,0,0,0,0,0,0,0,0,0,0,0,0,0,0,0,0,0,0,0,0,0,0,0,0,0,0,0,0,0,0,0,0,0,0,0],"id":9,"left_children":[1,3,-1,5,7,9,11,13,15,17,19,21,23,25,27,29,31,33,35,37,39,-1,41,43,45,47,49,51,53,55,57,59,61,-1,-1,-1,-1,-1,-1,-1,-1,-1,-1,-1,-1,-1,-1,-1,-1,-1,-1,-1,-1,-1,-1,-1,-1,-1,-1,-1,-1,-1,-1],"loss_changes":[3.1376932E1,2.615096E1,0E0,3.1642483E1,2.5692585E1,2.4633753E1,2.2024258E1,1.4597992E1,1.4941087E1,2.405172E1,1.4250757E1,1.7690262E1,9.816082E0,5.7756195E0,1.5132082E1,1.0761024E1,7.822241E0,2.0857407E1,8.956308E0,1.0849847E1,6.669224E0,0E0,1.3016493E1,6.7181244E0,8.374628E0,5.667862E0,6.4882545E0,1.0016621E1,1.7747746E1,8.055857E0,3.5205638E0,7.7569056E0,6.0379386E0,0E0,0E0,0E0,0E0,0E0,0E0,0E0,0E0,0E0,0E0,0E0,0E0,0E0,0E0,0E0,0E0,0E0,0E0,0E0,0E0,0E0,0E0,0E0,0E0,0E0,0E0,0E0,0E0,0E0,0E0],"parents":[2147483647,0,0,1,1,3,3,4,4,5,5,6,6,7,7,8,8,9,9,10,10,11,11,12,12,13,13,14,14,15,15,16,16,17,17,18,18,19,19,20,20,22,22,23,23,24,24,25,25,26,26,27,27,28,28,29,29,30,30,31,31,32,32],"right_children":[2,4,-1,6,8,10,12,14,16,18,20,22,24,26,28,30,32,34,36,38,40,-1,42,44,46,48,50,52,54,56,58,60,62,-1,-1,-1,-1,-1,-1,-1,-1,-1,-1,-1,-1,-1,-1,-1,-1,-1,-1,-1,-1,-1,-1,-1,-1,-1,-1,-1,-1,-1,-1],"split_conditions":[3.6065573E-1,1E0,-3.0856052E-1,1.4655308E-1,5.0512177E-1,1.8798836E-3,7.5013345E-1,6.0343E-1,7.5E-1,9.8690584E-2,3.817134E-3,1.904762E-1,9.5403314E-1,2.3770492E-1,1.8798836E-3,1.3307407E-1,3.817134E-3,1.6393442E-2,4.347826E-2,5.014605E-1,7.454835E-2,3.8936695E-1,3.817134E-3,3.011194E-1,7.454835E-2,3.114754E-1,1.977323E-1,8E-1,1.0493641E-2,2.252337E-2,3.011194E-1,6.942445E-1,7.334151E-3,4.9232315E-2,-2.1408379E-1,2.0742609E-1,-6.91808E-3,-7.100418E-2,1.0987444E-1,1.06314756E-1,2.9887864E-1,-3.7167847E-2,1.6717085E-1,-1.8515016E-1,3.8805822E-1,-1.8317278E-1,2.3759033E-1,-2.8118563E-1,1.6213084E-3,2.9507053E-1,-2.5230235E-1,2.9767907E-1,-2.8938517E-1,-2.7323693E-1,4.781023E-1,-1.2064842E-1,2.5302425E-1,1.2299344E-1,-3.427778E-1,-3.3542502E-1,2.679789E-1,-3.141331E-1,1.9462802E-1],"split_indices":[0,26,0,6,1,24,5,4,5,2,7,6,20,2,24,2,7,0,11,5,2,0,7,4,2,0,0,4,15,11,4,8,13,0,0,0,0,0,0,0,0,0,0,0,0,0,0,0,0,0,0,0,0,0,0,0,0,0,0,0,0,0,0],"split_type":[0,0,0,0,0,0,0,0,0,0,0,0,0,0,0,0,0,0,0,0,0,0,0,0,0,0,0,0,0,0,0,0,0,0,0,0,0,0,0,0,0,0,0,0,0,0,0,0,0,0,0,0,0,0,0,0,0,0,0,0,0,0,0],"sum_hessian":[8.123232E2,7.852908E2,2.7032427E1,6.030365E2,1.8225426E2,4.095062E2,1.935303E2,1.105689E2,7.1685356E1,2.2123221E2,1.8827399E2,1.3316571E2,6.03646E1,8.434975E1,2.6219156E1,4.7455494E1,2.4229862E1,1.3936026E2,8.187195E1,1.1808516E2,7.0188835E1,1.3392458E1,1.19773254E2,4.3768047E1,1.6596552E1,7.84951E1,5.854647E0,1.4525542E1,1.1693614E1,4.201659E1,5.438905E0,1.481586E1,9.414002E0,3.6132965E1,1.032273E2,2.4172325E1,5.7699623E1,6.3560745E1,5.452441E1,4.346918E1,2.6719652E1,7.681882E1,4.2954437E1,1.361938E0,4.240611E1,5.7511086E0,1.0845444E1,7.151462E1,6.9804835E0,3.1887333E0,2.6659138E0,2.4048688E0,1.2120674E1,3.2808213E0,8.412792E0,5.416776E0,3.659981E1,1.468115E0,3.97079E0,1.3361571E1,1.454288E0,1.8130195E0,7.6009827E0],"tree_param":{"num_deleted":"0","num_feature":"31","num_nodes":"63","size_leaf_vector":"1"}},{"base_weights":[6.976759E-3,2.953115E-1,-9.6114784E-2,1.8316016E-1,3.4527504E-1,-5.5532527E-1,-9.49137E-3,3.3154756E-1,-4.609593E-1,-8.242888E-1,-1.2665834E-1,3.682539E-1,-1.02880955E-1,4.9780992E-1,-2.405468E-1,-9.437557E-1,-2.6109139E-2,-1.1637808E0,-5.622436E-1,6.81874E-1,-4.1913795E-1,8.937896E-2,-3.1278616E-1,6.1818175E-2,7.000118E-1,1.0655518E-1,-7.4575025E-1,-1.0362927E0,1.4921867E-2,6.755028E-1,-5.2296937E-1,-3.9420563E-1,-1.2542402E0,1.1117468E-1,-8.1783146E-1,3.8424248E-1,-7.8068875E-2,-3.4964702E-1,-1.2134185E-1,-3.602334E-2,4.5223966E-1,2.7541488E-1,-5.343102E-1,-4.3316644E-2,2.3435101E-1,1.7773627E-1,5.1899797E-1,1.9654216E-1,-9.09068E-2,-6.66189E-2,-3.168575E-1,-3.5718277E-1,-1.3666958E-1,-1.9054101E-1,2.8807825E-1,-2.8666914E-1,1.7300753E-1,-2.0374644E-1,2.2350352E-2,-4.541474E-1,-2.4472253E-1,-2.9381567E-1,1.747348E-1,-1.1306412E-1,-3.3685246E-1,-2.6387766E-1,2.9247993E-1,-1.4075606E-1,1.1414549E-1,-3.0922286E-2,2.8858116E-1,-3.830337E-2,2.908278E-1,-2.0864178E-1,-6.366507E-2],"categories":[],"categories_nodes":[],"categories_segments":[],"categories_sizes":[],"default_left":[0,0,0,0,0,0,0,0,0,0,0,0,0,0,0,0,0,0,0,0,0,0,0,0,0,0,0,0,0,0,0,0,0,0,0,0,0,0,0,0,0,0,0,0,0,0,0,0,0,0,0,0,0,0,0,0,0,0,0,0,0,0,0,0,0,0,0,0,0,0,0,0,0,0,0],"id":10,"left_children":[1,3,5,7,-1,9,11,13,15,17,19,-1,21,23,25,27,29,31,33,35,37,39,41,43,45,47,49,51,-1,53,55,57,59,61,63,-1,65,-1,67,69,-1,71,73,-1,-1,-1,-1,-1,-1,-1,-1,-1,-1,-1,-1,-1,-1,-1,-1,-1,-1,-1,-1,-1,-1,-1,-1,-1,-1,-1,-1,-1,-1,-1,-1],"loss_changes":[2.250495E1,1.8922773E1,2.2181385E1,1.711607E1,0E0,1.009906E1,5.4452114E1,1.3895588E1,7.039777E0,4.1671715E0,8.633757E0,0E0,1.7710918E1,9.878296E0,5.9165277E0,1.5148754E0,6.8833146E0,1.0840969E0,5.688553E0,4.5415225E0,5.7579894E0,4.0862236E1,2.7470552E1,5.564749E0,7.4818497E0,4.8283753E0,1.9896445E0,7.665825E-1,0E0,3.6711023E0,6.035866E0,5.6390524E-1,1.0224972E0,5.6214786E0,2.7635813E0,0E0,5.2831464E0,0E0,3.685185E0,1.4272125E1,0E0,1.6357178E1,7.777237E0,0E0,0E0,0E0,0E0,0E0,0E0,0E0,0E0,0E0,0E0,0E0,0E0,0E0,0E0,0E0,0E0,0E0,0E0,0E0,0E0,0E0,0E0,0E0,0E0,0E0,0E0,0E0,0E0,0E0,0E0,0E0,0E0],"parents":[2147483647,0,0,1,1,2,2,3,3,5,5,6,6,7,7,8,8,9,9,10,10,12,12,13,13,14,14,15,15,16,16,17,17,18,18,19,19,20,20,21,21,22,22,23,23,24,24,25,25,26,26,27,27,29,29,30,30,31,31,32,32,33,33,34,34,36,36,38,38,39,39,41,41,42,42],"right_children":[2,4,6,8,-1,10,12,14,16,18,20,-1,22,24,26,28,30,32,34,36,38,40,42,44,46,48,50,52,-1,54,56,58,60,62,64,-1,66,-1,68,70,-1,72,74,-1,-1,-1,-1,-1,-1,-1,-1,-1,-1,-1,-1,-1,-1,-1,-1,-1,-1,-1,-1,-1,-1,-1,-1,-1,-1,-1,-1,-1,-1,-1,-1],"split_conditions":[4.347826E-2,2.252337E-2,4.3693773E-2,5.1692307E-1,3.4527504E-1,5.5847326E-3,6.521739E-2,1E0,8.214027E-2,5.9005093E-2,3.7889698E-1,3.682539E-1,1E0,5.9183454E-3,4.918033E-2,3.8959908E-1,7.118908E-2,4.761905E-2,1.1164052E-1,1.3682608E-1,2.620796E-1,1.3462709E-3,1.3333334E-1,1.2334132E-1,3.114754E-1,6E-1,3.8679746E-1,4.781407E-1,1.4921867E-2,5.2615386E-1,7.5013345E-1,4.1846153E-1,1.4655308E-1,2.556145E-3,3.61735E-2,3.8424248E-1,3.817134E-3,-3.4964702E-1,4.061716E-1,8.1059283E-1,4.5223966E-1,1.9488439E-1,1.1934433E-2,-4.3316644E-2,2.3435101E-1,1.7773627E-1,5.1899797E-1,1.9654216E-1,-9.09068E-2,-6.66189E-2,-3.168575E-1,-3.5718277E-1,-1.3666958E-1,-1.9054101E-1,2.8807825E-1,-2.8666914E-1,1.7300753E-1,-2.0374644E-1,2.2350352E-2,-4.541474E-1,-2.4472253E-1,-2.9381567E-1,1.747348E-1,-1.1306412E-1,-3.3685246E-1,-2.6387766E-1,2.9247993E-1,-1.4075606E-1,1.1414549E-1,-3.0922286E-2,2.8858116E-1,-3.830337E-2,2.908278E-1,-2.0864178E-1,-6.366507E-2],"split_indices":[11,11,11,12,0,1,11,14,2,2,12,0,23,18,0,6,0,6,8,8,5,23,8,2,0,3,12,8,0,12,5,12,6,9,0,0,7,0,4,4,0,6,14,0,0,0,0,0,0,0,0,0,0,0,0,0,0,0,0,0,0,0,0,0,0,0,0,0,0,0,0,0,0,0,0],"split_type":[0,0,0,0,0,0,0,0,0,0,0,0,0,0,0,0,0,0,0,0,0,0,0,0,0,0,0,0,0,0,0,0,0,0,0,0,0,0,0,0,0,0,0,0,0,0,0,0,0,0,0,0,0,0,0,0,0,0,0,0,0,0,0,0,0,0,0,0,0,0,0,0,0,0,0],"sum_hessian":[7.5515344E2,1.9839677E2,5.5675665E2,1.7647835E2,2.1918425E1,8.749816E1,4.6925848E2,1.438293E2,3.2649044E1,5.3197144E1,3.4301018E1,3.208804E1,4.3717044E2,1.1154258E2,3.228672E1,1.4917002E1,1.773204E1,2.1675001E1,3.152214E1,8.7582655E0,2.5542753E1,2.2847551E2,2.0869495E2,3.5754257E1,7.578832E1,1.9605661E1,1.268106E1,1.3606569E1,1.310433E0,7.202256E0,1.0529784E1,2.8433414E0,1.8831661E1,8.82781E0,2.269433E1,4.514695E0,4.24357E0,6.45391E0,1.9088842E1,2.108082E2,1.7667309E1,5.7028065E1,1.5166687E2,2.8409706E1,7.344552E0,7.0048584E1,5.73974E0,8.12438E0,1.1481282E1,5.357962E0,7.3230977E0,9.9202585E0,3.6863103E0,1.0658922E0,6.136364E0,7.6510034E0,2.8787806E0,1.4890687E0,1.3542725E0,1.0288646E1,8.543015E0,2.3384116E0,6.489399E0,1.0193411E1,1.2500918E1,2.503011E0,1.7405589E0,1.1312525E1,7.776318E0,1.983764E2,1.2431792E1,3.659129E1,2.0436777E1,1.0031441E2,5.135247E1],"tree_param":{"num_deleted":"0","num_feature":"31","num_nodes":"75","size_leaf_vector":"1"}},{"base_weights":[6.5369816E-3,3.5790194E-2,-2.996562E-1,-8.38642E-2,2.5564396E-1,-4.4404723E-2,-8.539027E-1,-2.8862303E-1,3.529044E-1,-1.2662414E-1,3.4900695E-1,-1.0834306E0,-6.402665E-2,1.9586676E-1,-6.762435E-1,6.961119E-1,2.2938249E-1,3.137466E-2,-4.7121543E-1,8.131953E-1,-5.5960556E-3,-3.4150362E-1,-7.767954E-2,-2.4775982E-1,2.4777608E-1,-9.8204106E-1,7.1346265E-1,4.358291E-1,-8.6367726E-1,9.0982354E-1,2.9615778E-1,-2.7500361E-2,4.6064767E-1,-4.903752E-2,4.0206236E-1,3.656203E-2,-1.7692016E-1,1.0526113E-2,3.9057618E-1,-1.6723892E-1,2.1626745E-1,-1.5137777E-1,-3.795843E-1,1.0177631E-1,3.0067414E-1,-6.5671906E-2,2.616812E-1,-2.776519E-1,-1.7437927E-3,1.4514804E-1,3.1540477E-1,-1.2482344E-1,1.988243E-1,-1.323688E-1,7.275007E-2,3.4957927E-1,7.5714685E-2],"categories":[],"categories_nodes":[],"categories_segments":[],"categories_sizes":[],"default_left":[0,0,0,0,0,0,0,0,0,0,0,0,0,0,0,0,0,0,0,0,0,0,0,0,0,0,0,0,0,0,0,0,0,0,0,0,0,0,0,0,0,0,0,0,0,0,0,0,0,0,0,0,0,0,0,0,0],"id":11,"left_children":[1,3,-1,5,7,9,11,13,15,17,19,21,23,25,27,29,31,33,35,37,39,-1,-1,-1,-1,41,43,45,47,49,51,53,55,-1,-1,-1,-1,-1,-1,-1,-1,-1,-1,-1,-1,-1,-1,-1,-1,-1,-1,-1,-1,-1,-1,-1,-1],"loss_changes":[2.097104E1,1.8242882E1,0E0,1.36140785E1,1.3037446E1,1.390285E1,3.8913422E0,7.1932144E0,8.6483135E0,1.9349285E1,1.22394E1,4.688301E-1,4.737677E0,1.1361606E1,4.776887E0,4.3884907E0,9.17766E0,6.2546803E1,7.923563E0,1.2198454E1,1.7694561E1,0E0,0E0,0E0,0E0,1.4033747E-1,1.0353613E0,1.2509841E0,9.706707E-1,1.6035233E0,5.6180053E0,8.376846E0,1.1627699E1,0E0,0E0,0E0,0E0,0E0,0E0,0E0,0E0,0E0,0E0,0E0,0E0,0E0,0E0,0E0,0E0,0E0,0E0,0E0,0E0,0E0,0E0,0E0,0E0],"parents":[2147483647,0,0,1,1,3,3,4,4,5,5,6,6,7,7,8,8,9,9,10,10,11,11,12,12,13,13,14,14,15,15,16,16,17,17,18,18,19,19,20,20,25,25,26,26,27,27,28,28,29,29,30,30,31,31,32,32],"right_children":[2,4,-1,6,8,10,12,14,16,18,20,22,24,26,28,30,32,34,36,38,40,-1,-1,-1,-1,42,44,46,48,50,52,54,56,-1,-1,-1,-1,-1,-1,-1,-1,-1,-1,-1,-1,-1,-1,-1,-1,-1,-1,-1,-1,-1,-1,-1,-1],"split_conditions":[3.6065573E-1,3.817134E-3,-2.996562E-1,7.907692E-1,1.7027257E-2,6.015856E-1,6.0343E-1,3.2786883E-2,4.347826E-2,1.25E-1,4.9393106E-1,8.5151035E-1,8.411591E-3,5.9183454E-3,3.8153082E-1,1.3114753E-1,6.329468E-2,6.329468E-2,5.944962E-1,6.703169E-2,1.9488439E-1,-3.4150362E-1,-7.767954E-2,-2.4775982E-1,2.4777608E-1,7.334151E-3,5.5847326E-3,5.5847326E-3,3.8959908E-1,4.859623E-2,5.9183454E-3,5.9005093E-2,1.25E-1,-4.903752E-2,4.0206236E-1,3.656203E-2,-1.7692016E-1,1.0526113E-2,3.9057618E-1,-1.6723892E-1,2.1626745E-1,-1.5137777E-1,-3.795843E-1,1.0177631E-1,3.0067414E-1,-6.5671906E-2,2.616812E-1,-2.776519E-1,-1.7437927E-3,1.4514804E-1,3.1540477E-1,-1.2482344E-1,1.988243E-1,-1.323688E-1,7.275007E-2,3.4957927E-1,7.5714685E-2],"split_indices":[0,7,0,12,5,12,4,0,11,9,5,10,16,18,12,0,9,9,3,2,6,0,0,0,0,13,1,1,6,6,18,2,9,0,0,0,0,0,0,0,0,0,0,0,0,0,0,0,0,0,0,0,0,0,0,0,0],"split_type":[0,0,0,0,0,0,0,0,0,0,0,0,0,0,0,0,0,0,0,0,0,0,0,0,0,0,0,0,0,0,0,0,0,0,0,0,0,0,0,0,0,0,0,0,0,0,0,0,0,0,0,0,0,0,0,0,0],"sum_hessian":[7.1082056E2,6.9166016E2,1.9160387E1,4.4829578E2,2.4336436E2,4.2744943E2,2.0846344E1,3.6597603E1,2.0676675E2,3.541198E2,7.3329636E1,1.5864637E1,4.981708E0,1.6486143E1,2.0111462E1,5.3494892E1,1.5327187E2,2.4341869E2,1.1070112E2,3.119759E1,4.2132042E1,1.4517092E1,1.3475455E0,2.7228317E0,2.258876E0,4.758889E0,1.1727253E1,2.7096221E0,1.740184E1,3.4034218E1,1.9460674E1,7.303156E1,8.024031E1,2.1264015E2,3.0778526E1,1.843259E1,9.2268524E1,1.2449041E1,1.8748549E1,2.4075817E1,1.8056227E1,2.8076406E0,1.9512488E0,6.055401E0,5.671852E0,1.2831345E0,1.4264876E0,1.6158403E1,1.2434363E0,9.589169E0,2.444505E1,6.5669527E0,1.2893722E1,2.858928E1,4.444228E1,1.725774E1,6.298257E1],"tree_param":{"num_deleted":"0","num_feature":"31","num_nodes":"57","size_leaf_vector":"1"}},{"base_weights":[7.300353E-3,3.0396236E-2,-2.9146218E-1,-1.8096167E-1,1.2646405E-1,-1.10260054E-1,-6.202345E-1,3.3160144E-1,2.0645676E-2,-3.5415703E-1,7.913902E-2,-8.5940605E-1,3.705615E-1,-1.17730185E-1,2.4589738E-1,-4.710845E-1,2.6393506E-1,3.7650985E-1,-1.1128815E-1,3.8886133E-3,-9.42009E-1,-3.5833785E-1,2.808059E-1,-3.5733476E-1,2.6612716E-2,3.3830237E-1,-4.5893572E-2,-2.5061792E-1,-8.3671644E-2,-2.3247252E-1,3.2312563E-1,-9.347268E-2,8.065938E-2,-3.356399E-1,-1.6364957E-1,6.97672E-2,-2.165136E-1,-1.8025893E-1,2.5514418E-2,4.086965E-1,-6.287488E-3,-6.4471014E-2,1.6184515E-1],"categories":[],"categories_nodes":[],"categories_segments":[],"categories_sizes":[],"default_left":[0,0,0,0,0,0,0,0,0,0,0,0,0,0,0,0,0,0,0,0,0,0,0,0,0,0,0,0,0,0,0,0,0,0,0,0,0,0,0,0,0,0,0],"id":12,"left_children":[1,3,-1,5,7,9,11,-1,13,15,17,19,21,23,25,27,29,-1,31,-1,33,35,-1,37,39,-1,41,-1,-1,-1,-1,-1,-1,-1,-1,-1,-1,-1,-1,-1,-1,-1,-1],"loss_changes":[1.5257063E1,1.3403944E1,0E0,6.3401976E0,4.6969208E1,8.294691E0,7.0463457E0,0E0,1.2821719E1,5.790922E0,2.287883E1,1.6819687E0,2.8988543E0,8.825914E0,4.032065E1,4.408312E0,1.1912402E1,0E0,6.8080435E0,0E0,8.7447166E-1,9.0651214E-1,0E0,1.038315E1,1.0195995E1,0E0,1.1845225E1,0E0,0E0,0E0,0E0,0E0,0E0,0E0,0E0,0E0,0E0,0E0,0E0,0E0,0E0,0E0,0E0],"parents":[2147483647,0,0,1,1,3,3,4,4,5,5,6,6,8,8,9,9,10,10,11,11,12,12,13,13,14,14,15,15,16,16,18,18,20,20,21,21,23,23,24,24,26,26],"right_children":[2,4,-1,6,8,10,12,-1,14,16,18,20,22,24,26,28,30,-1,32,-1,34,36,-1,38,40,-1,42,-1,-1,-1,-1,-1,-1,-1,-1,-1,-1,-1,-1,-1,-1,-1,-1],"split_conditions":[3.6065573E-1,4.061716E-1,-2.9146218E-1,9.4825155E-1,6E-1,4.0209872E-1,2.173622E-1,3.3160144E-1,6.0343E-1,8.411591E-3,6E-1,9.801201E-3,1.8798836E-3,5.9183454E-3,8E-1,5.9183454E-3,7.454835E-2,3.7650985E-1,9.8690584E-2,3.8886133E-3,1.8798836E-3,5.5847326E-3,2.808059E-1,8.9177094E-2,9.7895753E-1,3.3830237E-1,2.3815934E-1,-2.5061792E-1,-8.3671644E-2,-2.3247252E-1,3.2312563E-1,-9.347268E-2,8.065938E-2,-3.356399E-1,-1.6364957E-1,6.97672E-2,-2.165136E-1,-1.8025893E-1,2.5514418E-2,4.086965E-1,-6.287488E-3,-6.4471014E-2,1.6184515E-1],"split_indices":[0,4,0,25,4,3,10,0,4,16,3,8,24,18,4,18,2,0,2,0,24,1,0,11,18,0,6,0,0,0,0,0,0,0,0,0,0,0,0,0,0,0,0],"split_type":[0,0,0,0,0,0,0,0,0,0,0,0,0,0,0,0,0,0,0,0,0,0,0,0,0,0,0,0,0,0,0,0,0,0,0,0,0,0,0,0,0,0,0],"sum_hessian":[6.725701E2,6.580132E2,1.4556962E1,2.0534714E2,4.5266602E2,1.7795587E2,2.7391256E1,4.3238857E1,4.0942715E2,7.740647E1,1.0054941E2,2.2171753E1,5.2195034E0,2.5391829E2,1.5550888E2,6.52926E1,1.21138735E1,1.3234616E1,8.731479E1,1.9907328E0,2.018102E1,2.4402304E0,2.7792728E0,9.490442E1,1.5901387E2,3.79528E1,1.17556076E2,2.1392488E1,4.390011E1,5.339457E0,6.7744164E0,5.7303986E1,3.0010805E1,1.2697862E1,7.4831595E0,1.066296E0,1.3739344E0,6.0978165E1,3.3926254E1,4.5180297E0,1.5449585E2,9.171039E1,2.5845688E1],"tree_param":{"num_deleted":"0","num_feature":"31","num_nodes":"43","size_leaf_vector":"1"}},{"base_weights":[1.0321269E-2,-1.0850948E-1,1.7682454E-1,-7.573143E-1,-3.9563276E-2,2.3170298E-1,-9.374799E-1,-8.422761E-1,3.3979604E-1,-7.4765193E-1,1.1013505E-2,3.3432174E-1,1.9314356E-1,-8.213708E-2,-3.0227864E-1,-1.0519023E0,-4.0491894E-1,2.256098E-1,-6.5518975E-2,-1.5647627E-1,-9.934027E-1,2.7318498E-1,-1.4112382E-1,5.9588335E-2,4.6665433E-1,-1.2627498E0,-4.0235648E-1,-8.7939787E-1,3.5642117E-1,-2.1169654E-1,2.793427E-1,-1.0735343E0,2.4356367E-2,4.439056E-1,-8.2657415E-1,-3.8846858E-2,-5.6748086E-1,3.5768166E-1,-2.593188E-1,5.9365195E-1,-3.7474695E-1,2.189245E-2,-4.084762E-1,1.3701689E-1,-2.8516153E-1,-9.271497E-2,-2.867569E-1,2.258914E-1,-4.55446E-2,-1.2348991E-1,1.982349E-1,-4.235078E-2,-3.5312527E-1,-2.012134E-2,1.776531E-1,-3.05991E-1,-9.200468E-2,-7.4938476E-2,6.923261E-2,-2.6211014E-1,5.3171914E-2,1.4209884E-1,-6.766825E-2,-1.3178432E-1,1.3486473E-1,1.0138374E-1,2.8616777E-1,9.0638496E-2,-2.9667938E-1],"categories":[],"categories_nodes":[],"categories_segments":[],"categories_sizes":[],"default_left":[0,0,0,0,0,0,0,0,0,0,0,0,0,0,0,0,0,0,0,0,0,0,0,0,0,0,0,0,0,0,0,0,0,0,0,0,0,0,0,0,0,0,0,0,0,0,0,0,0,0,0,0,0,0,0,0,0,0,0,0,0,0,0,0,0,0,0,0,0],"id":13,"left_children":[1,3,5,7,9,11,13,15,17,19,21,-1,23,-1,-1,25,27,-1,-1,29,31,33,35,37,39,41,43,45,47,-1,49,51,-1,53,55,57,59,61,63,65,67,-1,-1,-1,-1,-1,-1,-1,-1,-1,-1,-1,-1,-1,-1,-1,-1,-1,-1,-1,-1,-1,-1,-1,-1,-1,-1,-1,-1],"loss_changes":[1.2622204E1,1.6624859E1,1.6462448E1,3.6147594E0,1.2099006E1,8.429658E0,3.1360626E-1,2.6389961E0,9.188014E-1,3.1165142E0,1.264608E1,0E0,8.905965E0,0E0,0E0,2.501213E0,4.8135552E0,0E0,0E0,2.0640023E0,1.4409056E0,2.2223213E1,8.728811E0,1.58233385E1,8.781044E0,2.227583E0,3.6610904E0,5.183983E-2,1.2216773E0,0E0,1.6070315E0,1.2531319E0,0E0,7.723522E0,1.2951174E0,9.324233E0,8.992277E0,5.920807E0,1.0470061E1,6.123684E0,4.920313E0,0E0,0E0,0E0,0E0,0E0,0E0,0E0,0E0,0E0,0E0,0E0,0E0,0E0,0E0,0E0,0E0,0E0,0E0,0E0,0E0,0E0,0E0,0E0,0E0,0E0,0E0,0E0,0E0],"parents":[2147483647,0,0,1,1,2,2,3,3,4,4,5,5,6,6,7,7,8,8,9,9,10,10,12,12,15,15,16,16,19,19,20,20,21,21,22,22,23,23,24,24,25,25,26,26,27,27,28,28,30,30,31,31,33,33,34,34,35,35,36,36,37,37,38,38,39,39,40,40],"right_children":[2,4,6,8,10,12,14,16,18,20,22,-1,24,-1,-1,26,28,-1,-1,30,32,34,36,38,40,42,44,46,48,-1,50,52,-1,54,56,58,60,62,64,66,68,-1,-1,-1,-1,-1,-1,-1,-1,-1,-1,-1,-1,-1,-1,-1,-1,-1,-1,-1,-1,-1,-1,-1,-1,-1,-1,-1,-1],"split_conditions":[5.5847326E-3,1.7707707E-2,3.114754E-1,3.8959908E-1,3.011194E-1,5E-1,1.7027257E-2,6.670828E-2,2E-1,9.903618E-1,2E-1,3.3432174E-1,6.7646414E-2,-8.213708E-2,-3.0227864E-1,1.1934433E-2,1.8798836E-3,2.256098E-1,-6.5518975E-2,5.6658145E-3,2.6086956E-1,7.430815E-1,9.6920997E-1,6.521739E-2,6E-1,2.8057838E-2,2.943659E-2,4.56009E-1,4.679875E-1,-2.1169654E-1,3.817134E-3,1.1921874E-3,2.4356367E-2,4.0209872E-1,3.4343437E-3,1.8798836E-3,1.9488439E-1,5.3333336E-1,2.3815934E-1,2.6952252E-1,4.6461317E-1,2.189245E-2,-4.084762E-1,1.3701689E-1,-2.8516153E-1,-9.271497E-2,-2.867569E-1,2.258914E-1,-4.55446E-2,-1.2348991E-1,1.982349E-1,-4.235078E-2,-3.5312527E-1,-2.012134E-2,1.776531E-1,-3.05991E-1,-9.200468E-2,-7.4938476E-2,6.923261E-2,-2.6211014E-1,5.3171914E-2,1.4209884E-1,-6.766825E-2,-1.3178432E-1,1.3486473E-1,1.0138374E-1,2.8616777E-1,9.0638496E-2,-2.9667938E-1],"split_indices":[1,2,0,6,4,1,5,11,8,13,8,0,10,0,0,14,24,0,0,21,11,20,29,11,8,6,11,12,12,0,7,11,0,3,25,24,6,8,6,8,23,0,0,0,0,0,0,0,0,0,0,0,0,0,0,0,0,0,0,0,0,0,0,0,0,0,0,0,0],"split_type":[0,0,0,0,0,0,0,0,0,0,0,0,0,0,0,0,0,0,0,0,0,0,0,0,0,0,0,0,0,0,0,0,0,0,0,0,0,0,0,0,0,0,0,0,0,0,0,0,0,0,0,0,0,0,0,0,0,0,0,0,0,0,0,0,0,0,0,0,0],"sum_hessian":[6.359757E2,3.713193E2,2.646564E2,3.4709373E1,3.3660992E2,2.52989E2,1.1667403E1,3.243021E1,2.2791648E0,2.1521439E1,3.150885E2,9.421055E0,2.4356795E2,1.5834874E0,1.0083916E1,2.097278E1,1.1457428E1,1.111233E0,1.1679318E0,6.8000445E0,1.4721394E1,1.15410706E2,1.996778E2,1.6447346E2,7.909448E1,1.51205E1,5.8522816E0,6.962946E0,4.4944816E0,2.73478E0,4.065264E0,1.3700723E1,1.0206714E0,1.00418625E2,1.499208E1,1.6192532E2,3.775246E1,8.494805E1,7.952541E1,6.8977715E1,1.0116762E1,1.0597895E0,1.406071E1,2.3446774E0,3.507604E0,1.4191012E0,5.5438447E0,2.25415E0,2.2403314E0,1.417792E0,2.6474726E0,1.6057574E0,1.2094965E1,2.270831E1,7.771032E1,1.0226143E1,4.765936E0,9.0888885E1,7.1036446E1,2.662954E1,1.1122918E1,7.101433E1,1.3933727E1,6.3727135E1,1.5798276E1,4.1475597E1,2.750212E1,5.0544624E0,5.0622993E0],"tree_param":{"num_deleted":"0","num_feature":"31","num_nodes":"69","size_leaf_vector":"1"}},{"base_weights":[2.7114463E-3,-9.592667E-2,1.897498E-1,-1.8846361E-1,1.8850105E-1,-6.1190978E-2,4.0081337E-1,-2.5239897E-1,3.9557156E-1,3.754799E-1,-8.4449416E-1,2.0010036E-1,-3.9641944E-1,3.259784E-1,3.480417E-1,1.2342921E-1,-3.6881474E-1,-2.2855592E-1,7.656965E-1,6.221664E-2,7.2575223E-1,-3.1143412E-1,6.4937636E-2,-3.5008073E-1,3.4767282E-1,-6.0745007E-1,3.1159577E-1,6.35249E-1,1.2868518E-1,-1.854562E-1,3.6174342E-1,-4.2483625E-1,4.053607E-1,-5.1519465E-1,2.5258192E-1,1.3151355E0,2.386838E-1,-1.7755038E-1,3.953064E-1,3.1957474E-1,1.1316541E0,-2.0564224E-1,2.7128437E-1,1.5906857E-1,-2.8244913E-1,4.8101544E-1,-1.9261713E-1,2.1051025E-1,-6.945001E-1,-7.536995E-1,7.150809E-1,7.140248E-1,-2.6316848E-1,-1.8903127E-1,3.199888E-1,-1.1300631E-1,1.3828032E-1,-9.259785E-2,-2.4825294E-1,2.0423526E-1,-2.3587322E-1,1.3952294E-1,-2.3172608E-1,1.306945E-1,4.4852823E-1,-2.8532648E-1,4.059156E-1,-3.6389208E-1,1.2856524E-1,2.3921688E-1,-1.8977182E-1,1.6460614E-1,-2.5145024E-1,3.6068037E-1,1.07336445E-2,2.2073902E-1,-1.111661E-1,-6.1727944E-4,2.1162508E-1,-3.1278595E-1,9.2296675E-2,-2.3643452E-1,1.7419137E-1,-2.753578E-1,-7.784347E-2,2.915065E-1,-1.6428466E-1,-1.3189832E-2,2.5525182E-1,-3.379046E-1,2.7036915E-2,5.5384994E-2,3.138872E-1],"categories":[],"categories_nodes":[],"categories_segments":[],"categories_sizes":[],"default_left":[0,0,0,0,0,0,0,0,0,0,0,0,0,0,0,0,0,0,0,0,0,0,0,0,0,0,0,0,0,0,0,0,0,0,0,0,0,0,0,0,0,0,0,0,0,0,0,0,0,0,0,0,0,0,0,0,0,0,0,0,0,0,0,0,0,0,0,0,0,0,0,0,0,0,0,0,0,0,0,0,0,0,0,0,0,0,0,0,0,0,0,0,0],"id":14,"left_children":[1,3,5,7,9,11,13,15,17,19,21,23,25,27,-1,29,31,33,35,37,39,-1,41,43,45,47,49,51,53,55,-1,57,59,61,-1,63,65,67,69,71,73,-1,-1,75,-1,77,79,-1,81,83,85,87,-1,89,91,-1,-1,-1,-1,-1,-1,-1,-1,-1,-1,-1,-1,-1,-1,-1,-1,-1,-1,-1,-1,-1,-1,-1,-1,-1,-1,-1,-1,-1,-1,-1,-1,-1,-1,-1,-1,-1,-1],"loss_changes":[1.1249314E1,1.0543372E1,1.1175054E1,1.1366582E1,1.9342846E1,8.579811E0,6.12718E0,1.1971035E1,7.1424093E0,9.182758E0,2.7799587E0,4.603642E0,6.590752E0,6.361809E0,0E0,2.202601E1,9.208748E0,4.115323E0,5.23501E0,3.7030644E0,6.16881E0,0E0,2.9157753E0,3.815372E0,3.2646346E0,4.2874184E0,5.051667E0,5.496523E0,4.0554094E0,6.551957E0,0E0,8.856888E0,5.317603E0,2.9020154E0,0E0,7.984657E-1,1.587504E1,1.7551744E1,8.501171E0,6.0811043E0,1.4596462E0,0E0,0E0,2.5320768E0,0E0,3.8604946E0,4.3304324E0,0E0,4.2499304E0,3.532529E-2,3.1656742E0,4.1236763E0,0E0,6.729451E0,3.8769855E0,0E0,0E0,0E0,0E0,0E0,0E0,0E0,0E0,0E0,0E0,0E0,0E0,0E0,0E0,0E0,0E0,0E0,0E0,0E0,0E0,0E0,0E0,0E0,0E0,0E0,0E0,0E0,0E0,0E0,0E0,0E0,0E0,0E0,0E0,0E0,0E0,0E0,0E0],"parents":[2147483647,0,0,1,1,2,2,3,3,4,4,5,5,6,6,7,7,8,8,9,9,10,10,11,11,12,12,13,13,15,15,16,16,17,17,18,18,19,19,20,20,22,22,23,23,24,24,25,25,26,26,27,27,28,28,29,29,31,31,32,32,33,33,35,35,36,36,37,37,38,38,39,39,40,40,43,43,45,45,46,46,48,48,49,49,50,50,51,51,53,53,54,54],"right_children":[2,4,6,8,10,12,14,16,18,20,22,24,26,28,-1,30,32,34,36,38,40,-1,42,44,46,48,50,52,54,56,-1,58,60,62,-1,64,66,68,70,72,74,-1,-1,76,-1,78,80,-1,82,84,86,88,-1,90,92,-1,-1,-1,-1,-1,-1,-1,-1,-1,-1,-1,-1,-1,-1,-1,-1,-1,-1,-1,-1,-1,-1,-1,-1,-1,-1,-1,-1,-1,-1,-1,-1,-1,-1,-1,-1,-1,-1],"split_conditions":[3.817134E-3,7.5013345E-1,5.6658145E-3,2.636272E-1,1.6393442E-1,1E0,8.411591E-3,6.25E-2,5.9183454E-3,9.765998E-2,1.8192641E-1,2.620796E-1,1.6462748E-1,1E0,3.480417E-1,2.556145E-3,8.1059283E-1,3.2786885E-1,1.2920763E-1,5.5847326E-3,1.0493641E-2,-3.1143412E-1,1.8798836E-3,1.034706E-1,9.944153E-1,9.7550154E-1,5.9183454E-3,1E0,5.9005093E-2,5.279786E-1,3.6174342E-1,9.3689096E-1,7.861615E-1,1.9689642E-2,2.5258192E-1,1.9488439E-1,5.014605E-1,1.8798836E-3,9.373533E-1,1.4284761E-1,3.782089E-1,-2.0564224E-1,2.7128437E-1,5.9994274E-1,-2.8244913E-1,4.2154677E-2,7.334151E-3,2.1051025E-1,2.1602722E-2,5.569231E-1,2.4275573E-1,1.7027257E-2,-2.6316848E-1,7.032572E-2,1.3698551E-2,-1.1300631E-1,1.3828032E-1,-9.259785E-2,-2.4825294E-1,2.0423526E-1,-2.3587322E-1,1.3952294E-1,-2.3172608E-1,1.306945E-1,4.4852823E-1,-2.8532648E-1,4.059156E-1,-3.6389208E-1,1.2856524E-1,2.3921688E-1,-1.8977182E-1,1.6460614E-1,-2.5145024E-1,3.6068037E-1,1.07336445E-2,2.2073902E-1,-1.111661E-1,-6.1727944E-4,2.1162508E-1,-3.1278595E-1,9.2296675E-2,-2.3643452E-1,1.7419137E-1,-2.753578E-1,-7.784347E-2,2.915065E-1,-1.6428466E-1,-1.3189832E-2,2.5525182E-1,-3.379046E-1,2.7036915E-2,5.5384994E-2,3.138872E-1],"split_indices":[7,5,21,9,0,23,16,9,18,6,2,5,2,13,0,9,4,0,8,1,15,0,24,0,14,7,18,17,2,12,0,29,3,0,0,6,5,24,24,11,6,0,0,4,0,2,13,0,22,12,0,5,0,8,17,0,0,0,0,0,0,0,0,0,0,0,0,0,0,0,0,0,0,0,0,0,0,0,0,0,0,0,0,0,0,0,0,0,0,0,0,0,0],"split_type":[0,0,0,0,0,0,0,0,0,0,0,0,0,0,0,0,0,0,0,0,0,0,0,0,0,0,0,0,0,0,0,0,0,0,0,0,0,0,0,0,0,0,0,0,0,0,0,0,0,0,0,0,0,0,0,0,0,0,0,0,0,0,0,0,0,0,0,0,0,0,0,0,0,0,0,0,0,0,0,0,0,0,0,0,0,0,0,0,0,0,0,0,0],"sum_hessian":[6.0776166E2,3.9823322E2,2.0952847E2,3.0072986E2,9.750336E1,9.604606E1,1.1348241E2,2.715686E2,2.9161251E1,8.3098495E1,1.4404857E1,5.420189E1,4.184417E1,1.04602646E2,8.8797655E0,6.421177E1,2.0735683E2,1.0998089E1,1.8163162E1,4.4488335E1,3.8610165E1,1.1759699E1,2.6451576E0,1.1173283E1,4.3028606E1,3.2345364E1,9.498806E0,3.98754E1,6.472724E1,5.060033E1,1.3611438E1,1.9378522E2,1.3571603E1,9.084367E0,1.9137217E0,8.160232E0,1.0002931E1,2.6139427E1,1.8348906E1,2.0191887E1,1.8418278E1,1.4933528E0,1.1518048E0,6.3970833E0,4.7762E0,3.4599274E1,8.429332E0,1.5764295E0,3.0768936E1,2.3709555E0,7.1278505E0,3.8403126E1,1.4722747E0,2.4330727E1,4.039652E1,3.9370117E1,1.1230213E1,1.5176538E2,4.201984E1,1.1371838E1,2.199765E0,1.7203121E0,7.364055E0,1.9671702E0,6.1930614E0,4.908654E0,5.094277E0,9.281777E0,1.6857649E1,1.3350665E1,4.998241E0,1.7295292E1,2.896595E0,1.7212114E1,1.2061635E0,2.8759992E0,3.5210838E0,1.1288705E1,2.331057E1,2.7213838E0,5.707948E0,2.9020329E1,1.7486063E0,1.1363305E0,1.234625E0,6.1155114E0,1.012339E0,5.975553E0,3.2427574E1,4.886947E0,1.9443779E1,3.5107227E1,5.289291E0],"tree_param":{"num_deleted":"0","num_feature":"31","num_nodes":"93","size_leaf_vector":"1"}},{"base_weights":[3.7159487E-3,2.0780982E-2,-2.778093E-1,8.723296E-2,-2.1921256E-1,5.441481E-2,3.9402032E-1,-4.356086E-1,7.085335E-2,-3.9198138E-2,3.3114302E-1,-5.898964E-1,1.4826088E-2,1.6878748E-1,-7.4012023E-1,-1.8761177E-1,1.6663945E-1,3.2194993E-1,1.9436465E-1,-7.2146004E-1,-6.334582E-2,8.70273E-1,-3.2660687E-1,-1.3487817E-1,8.063778E-1,4.6665754E-2,-2.915412E-1,6.657644E-2,-8.7894015E-2,1.0574995E-2,2.4672417E-1,1.05279095E-1,-7.289173E-2,-2.5689933E-1,2.93729E-2,-2.4294583E-1,8.151825E-2,3.878622E-1,-1.3742504E-1,2.2819011E-1,-1.6858064E-1,-3.0879763E-1,5.1218987E-2,3.4558827E-1,5.790544E-2],"categories":[],"categories_nodes":[],"categories_segments":[],"categories_sizes":[],"default_left":[0,0,0,0,0,0,0,0,0,0,0,0,0,0,0,0,0,0,0,0,0,0,0,0,0,0,0,0,0,0,0,0,0,0,0,0,0,0,0,0,0,0,0,0,0],"id":15,"left_children":[1,3,-1,5,7,9,-1,11,13,15,17,19,21,23,25,27,29,-1,31,33,35,37,39,41,43,-1,-1,-1,-1,-1,-1,-1,-1,-1,-1,-1,-1,-1,-1,-1,-1,-1,-1,-1,-1],"loss_changes":[9.00975E0,8.908749E0,0E0,1.7523869E1,7.635848E0,1.107194E1,0E0,4.840892E0,4.3046885E0,9.803425E0,1.0754171E1,3.5438004E0,5.7505975E0,9.35792E0,1.3664148E0,8.105871E0,1.1563651E1,0E0,6.413763E0,4.6545753E0,3.0851274E0,3.7425199E0,4.035959E0,9.255335E0,3.074809E0,0E0,0E0,0E0,0E0,0E0,0E0,0E0,0E0,0E0,0E0,0E0,0E0,0E0,0E0,0E0,0E0,0E0,0E0,0E0,0E0],"parents":[2147483647,0,0,1,1,3,3,4,4,5,5,7,7,8,8,9,9,10,10,11,11,12,12,13,13,14,14,15,15,16,16,18,18,19,19,20,20,21,21,22,22,23,23,24,24],"right_children":[2,4,-1,6,8,10,-1,12,14,16,18,20,22,24,26,28,30,-1,32,34,36,38,40,42,44,-1,-1,-1,-1,-1,-1,-1,-1,-1,-1,-1,-1,-1,-1,-1,-1,-1,-1,-1,-1],"split_conditions":[3.6065573E-1,1E0,-2.778093E-1,1.3270899E-2,5.0512177E-1,7.5013345E-1,3.9402032E-1,6.0343E-1,5.050227E-1,1.8798836E-3,1E0,1.9911471E-1,2.5E-1,2.173622E-1,2.4193687E-2,1.6393442E-2,8.411591E-3,3.2194993E-1,9.709286E-1,3.8959908E-1,6.703169E-2,1.4655308E-1,8E-1,2.620796E-1,2.620796E-1,4.6665754E-2,-2.915412E-1,6.657644E-2,-8.7894015E-2,1.0574995E-2,2.4672417E-1,1.05279095E-1,-7.289173E-2,-2.5689933E-1,2.93729E-2,-2.4294583E-1,8.151825E-2,3.878622E-1,-1.3742504E-1,2.2819011E-1,-1.6858064E-1,-3.0879763E-1,5.1218987E-2,3.4558827E-1,5.790544E-2],"split_indices":[0,26,0,26,1,5,0,4,10,24,5,9,5,10,8,0,16,0,20,6,2,6,4,5,5,0,0,0,0,0,0,0,0,0,0,0,0,0,0,0,0,0,0,0,0],"split_type":[0,0,0,0,0,0,0,0,0,0,0,0,0,0,0,0,0,0,0,0,0,0,0,0,0,0,0,0,0,0,0,0,0,0,0,0,0,0,0,0,0,0,0,0,0],"sum_hessian":[5.656466E2,5.564116E2,9.235004E0,4.3625357E2,1.20158035E2,4.2589883E2,1.0354724E1,6.853073E1,5.1627304E1,3.188837E2,1.0701515E2,5.0815308E1,1.7715427E1,4.677105E1,4.8562565E0,1.8533873E2,1.3354495E2,1.5590514E1,9.142464E1,4.036065E1,1.0454657E1,4.611817E0,1.3103611E1,3.2215977E1,1.4555072E1,1.0655429E0,3.7907135E0,3.7700935E1,1.476378E2,1.12132164E2,2.1412792E1,6.7468605E1,2.395603E1,3.46174E1,5.743249E0,2.799999E0,7.6546574E0,3.5189998E0,1.092817E0,1.934378E0,1.1169232E1,7.601105E0,2.461487E1,8.748064E0,5.807008E0],"tree_param":{"num_deleted":"0","num_feature":"31","num_nodes":"45","size_leaf_vector":"1"}},{"base_weights":[3.076287E-3,-5.246558E-1,3.2918613E-2,-6.7140573E-1,1.3817494E-1,2.4353468E-1,-4.2054143E-2,-2.99978E-1,-8.9115816E-1,2.4216117E-1,-5.141973E-1,1.7004386E-1,3.1115803E-1,-3.3877348E-4,-6.321258E-1,4.797141E-2,-2.8521582E-1,-3.453657E-1,-3.38131E-1,-2.3109852E-1,2.9538954E-3,3.1357804E-1,-2.8714585E-1,-3.9842454E-1,7.029044E-2,9.447073E-1,-8.592823E-1,4.5699346E-1,-3.809313E-1,-2.6235312E-1,1.6627549E-1,-3.4345474E-2,4.966977E-1,-2.9755893E-1,-5.9547126E-2,-8.988236E-1,-2.1386923E-1,3.218571E-1,1.49136335E-2,3.5232323E-1,5.117768E-2,-1.0295116E0,1.9957112E-1,1.1153368E-2,1.9799937E-1,7.253795E-2,-2.1968003E-1,2.0086548E-1,-1.377929E-1,-1.0259953E-1,1.0206573E-1,1.1504533E-1,4.3382663E-1,9.6828975E-2,-1.3278848E-1,-8.927744E-3,-3.151557E-1,-1.3680835E-2,-2.2573264E-1,-2.9677074E-2,7.450607E-2,-1.116501E-1,-3.619503E-1],"categories":[],"categories_nodes":[],"categories_segments":[],"categories_sizes":[],"default_left":[0,0,0,0,0,0,0,0,0,0,0,0,0,0,0,0,0,0,0,0,0,0,0,0,0,0,0,0,0,0,0,0,0,0,0,0,0,0,0,0,0,0,0,0,0,0,0,0,0,0,0,0,0,0,0,0,0,0,0,0,0,0,0],"id":16,"left_children":[1,3,5,7,9,11,13,15,17,-1,19,21,-1,23,25,27,-1,29,-1,-1,-1,31,33,35,37,39,41,43,45,-1,47,49,51,-1,53,55,57,-1,59,-1,-1,61,-1,-1,-1,-1,-1,-1,-1,-1,-1,-1,-1,-1,-1,-1,-1,-1,-1,-1,-1,-1,-1],"loss_changes":[8.536791E0,2.9148178E0,8.109999E0,1.6854067E0,3.0723374E0,7.686498E0,9.332458E0,2.4005275E0,1.4810486E0,0E0,5.0332636E-1,8.265184E0,0E0,1.0012488E1,9.778462E0,1.5299575E0,0E0,1.722517E0,0E0,0E0,0E0,6.088166E0,4.798951E0,4.7633953E0,1.6775742E1,4.448657E-1,6.499357E0,3.513636E-1,1.121797E0,0E0,1.5045278E0,4.0106726E0,6.162755E0,0E0,3.6516674E0,1.8336706E0,3.6372561E0,0E0,7.6681824E0,0E0,0E0,1.9414825E0,0E0,0E0,0E0,0E0,0E0,0E0,0E0,0E0,0E0,0E0,0E0,0E0,0E0,0E0,0E0,0E0,0E0,0E0,0E0,0E0,0E0],"parents":[2147483647,0,0,1,1,2,2,3,3,4,4,5,5,6,6,7,7,8,8,10,10,11,11,13,13,14,14,15,15,17,17,21,21,22,22,23,23,24,24,25,25,26,26,27,27,28,28,30,30,31,31,32,32,34,34,35,35,36,36,38,38,41,41],"right_children":[2,4,6,8,10,12,14,16,18,-1,20,22,-1,24,26,28,-1,30,-1,-1,-1,32,34,36,38,40,42,44,46,-1,48,50,52,-1,54,56,58,-1,60,-1,-1,62,-1,-1,-1,-1,-1,-1,-1,-1,-1,-1,-1,-1,-1,-1,-1,-1,-1,-1,-1,-1,-1],"split_conditions":[7.777936E-3,1.4851698E-1,4.347826E-2,4.3758657E-2,3.61735E-2,2.252337E-2,1E0,1.1934433E-2,4.2749566E-1,2.4216117E-1,6.670828E-2,4.7692308E-1,3.1115803E-1,4.3693773E-2,3.7631324E-1,2.5863813E-3,-2.8521582E-1,2.620796E-1,-3.38131E-1,-2.3109852E-1,2.9538954E-3,5.9183454E-3,2.620796E-1,2.620796E-1,6.521739E-2,7.455584E-2,8.1122243E-1,3.817134E-3,5.5847326E-3,-2.6235312E-1,3.9076924E-1,5.014605E-1,3.114754E-1,-2.9755893E-1,7.118908E-2,3.7889698E-1,1.2147436E-1,3.218571E-1,1.4811331E-1,3.5232323E-1,5.117768E-2,4.9393106E-1,1.9957112E-1,1.1153368E-2,1.9799937E-1,7.253795E-2,-2.1968003E-1,2.0086548E-1,-1.377929E-1,-1.0259953E-1,1.0206573E-1,1.1504533E-1,4.3382663E-1,9.6828975E-2,-1.3278848E-1,-8.927744E-3,-3.151557E-1,-1.3680835E-2,-2.2573264E-1,-2.9677074E-2,7.450607E-2,-1.116501E-1,-3.619503E-1],"split_indices":[6,2,11,2,0,11,17,14,13,0,11,12,0,11,12,0,0,5,0,0,0,18,5,5,11,8,8,7,1,0,12,5,0,0,0,12,2,0,10,0,0,5,0,0,0,0,0,0,0,0,0,0,0,0,0,0,0,0,0,0,0,0,0],"split_type":[0,0,0,0,0,0,0,0,0,0,0,0,0,0,0,0,0,0,0,0,0,0,0,0,0,0,0,0,0,0,0,0,0,0,0,0,0,0,0,0,0,0,0,0,0,0,0,0,0,0,0,0,0,0,0,0,0,0,0,0,0,0,0],"sum_hessian":[5.399647E2,2.8012386E1,5.119523E2,2.2924084E1,5.088302E0,1.3380745E2,3.7814487E2,9.400439E0,1.3523645E1,2.3949087E0,2.6933935E0,1.2357863E2,1.0228822E1,3.541114E2,2.4033482E1,6.728834E0,2.6716046E0,4.8253403E0,8.698305E0,1.4934744E0,1.1999192E0,9.429039E1,2.9288242E1,5.26606E1,3.0145078E2,2.628514E0,2.1404968E1,3.4107172E0,3.318117E0,2.0234456E0,2.8018947E0,3.279432E1,6.149607E1,6.330152E0,2.295809E1,1.3146167E1,3.951443E1,1.4817336E1,2.8663345E2,1.6282594E0,1.0002548E0,1.9547026E1,1.8579419E0,1.4973395E0,1.9133778E0,1.3092772E0,2.0088398E0,1.5137887E0,1.2881061E0,1.8053122E1,1.4741197E1,5.619843E1,5.2976413E0,1.1569411E1,1.1388679E1,2.1314192E0,1.1014748E1,3.0934296E1,8.580136E0,1.9306253E2,9.357091E1,4.8047576E0,1.4742269E1],"tree_param":{"num_deleted":"0","num_feature":"31","num_nodes":"63","size_leaf_vector":"1"}},{"base_weights":[1.264369E-3,-8.318376E-2,1.6433974E-1,-5.1748145E-2,-7.758886E-1,-3.40426E-2,3.2398763E-1,-5.878562E-1,-2.102757E-2,-2.7092282E-2,-1.0018959E0,-3.0671206E-1,1.6364409E-1,-1.3663246E-1,4.2567307E-1,2.4043374E-2,-8.1419396E-1,8.083977E-2,-1.9517964E-1,1.4855088E-1,-1.9151801E-1,-3.1639278E-1,-7.1073584E-2,-7.05064E-1,-4.2845514E-2,-2.4198152E-1,3.903909E-1,-4.8830163E-1,4.5441583E-1,9.5092034E-1,3.1626725E-1,-5.58677E-1,2.1179897E-1,-3.0855578E-1,-3.2976052E-1,-7.1216546E-2,3.7399298E-1,1.4644755E-1,-4.0043408E-1,-3.5700327E-1,1.1774398E-1,3.114046E-1,-2.8738278E-1,-4.123768E-1,2.5220898E-1,-5.733818E-1,6.0784096E-1,-6.996441E-1,9.592243E-2,2.6693496E-1,-2.5945124E-1,6.56126E-2,3.0782193E-1,-2.8265998E-1,5.0008684E-1,-4.4128764E-2,-1.9831839E-1,1.3401027E-1,-2.023484E-1,6.241413E-2,-7.713821E-2,-1.3137367E-1,1.2531745E-1,-2.0189705E-1,-1.7198764E-2,-1.8518128E-1,2.0046511E-1,-2.6508835E-1,1.6127773E-1,-1.7102718E-1,1.4588073E-1,7.694482E-2,-2.5511095E-1,2.8554806E-1,5.7658996E-2,-2.829896E-1,9.673189E-4,1.9317338E-1,-1.295737E-1,1.751503E-1,-2.6032528E-1,-2.0673664E-1,1.8882571E-1,9.18459E-2,2.3868494E-1],"categories":[],"categories_nodes":[],"categories_segments":[],"categories_sizes":[],"default_left":[0,0,0,0,0,0,0,0,0,0,0,0,0,0,0,0,0,0,0,0,0,0,0,0,0,0,0,0,0,0,0,0,0,0,0,0,0,0,0,0,0,0,0,0,0,0,0,0,0,0,0,0,0,0,0,0,0,0,0,0,0,0,0,0,0,0,0,0,0,0,0,0,0,0,0,0,0,0,0,0,0,0,0,0,0],"id":17,"left_children":[1,3,5,7,9,11,13,15,17,19,21,23,25,27,29,31,33,35,37,-1,-1,-1,-1,39,41,43,45,47,49,51,53,55,-1,-1,57,59,-1,61,63,-1,65,67,-1,69,-1,71,73,75,77,-1,79,-1,-1,81,83,-1,-1,-1,-1,-1,-1,-1,-1,-1,-1,-1,-1,-1,-1,-1,-1,-1,-1,-1,-1,-1,-1,-1,-1,-1,-1,-1,-1,-1,-1],"loss_changes":[7.211154E0,7.472289E0,5.6689887E0,5.440515E0,2.495285E0,4.3928614E0,4.698991E0,2.4996238E0,5.5894847E0,1.7475145E0,2.1100426E-1,3.5654984E0,4.449995E0,4.103479E0,4.377327E0,2.701857E0,1.0210114E0,3.5353935E1,8.209745E0,0E0,0E0,0E0,0E0,5.553171E0,7.314223E0,3.5931325E0,6.7946334E0,1.5722663E0,2.5569386E0,5.203991E-1,7.723784E0,5.822563E-2,0E0,0E0,1.77086E0,9.239343E0,0E0,7.21515E0,6.7771397E0,0E0,2.8160477E0,4.896402E0,0E0,2.5272331E0,0E0,1.6379352E0,3.4745998E0,1.5567765E0,1.4691737E0,0E0,2.3582108E0,0E0,0E0,6.666652E0,2.7974167E0,0E0,0E0,0E0,0E0,0E0,0E0,0E0,0E0,0E0,0E0,0E0,0E0,0E0,0E0,0E0,0E0,0E0,0E0,0E0,0E0,0E0,0E0,0E0,0E0,0E0,0E0,0E0,0E0,0E0,0E0],"parents":[2147483647,0,0,1,1,2,2,3,3,4,4,5,5,6,6,7,7,8,8,9,9,10,10,11,11,12,12,13,13,14,14,15,15,16,16,17,17,18,18,23,23,24,24,25,25,26,26,27,27,28,28,29,29,30,30,31,31,34,34,35,35,37,37,38,38,40,40,41,41,43,43,45,45,46,46,47,47,48,48,50,50,53,53,54,54],"right_children":[2,4,6,8,10,12,14,16,18,20,22,24,26,28,30,32,34,36,38,-1,-1,-1,-1,40,42,44,46,48,50,52,54,56,-1,-1,58,60,-1,62,64,-1,66,68,-1,70,-1,72,74,76,78,-1,80,-1,-1,82,84,-1,-1,-1,-1,-1,-1,-1,-1,-1,-1,-1,-1,-1,-1,-1,-1,-1,-1,-1,-1,-1,-1,-1,-1,-1,-1,-1,-1,-1,-1],"split_conditions":[3.817134E-3,7.907692E-1,5.6658145E-3,3.011194E-1,8.902359E-2,5.9183454E-3,4.0209872E-1,8.4486234E-1,1.25E-1,5.9183454E-3,9.846154E-1,1.3682608E-1,5.5847326E-3,4.061716E-1,3.876923E-1,1.8798836E-3,9.8690584E-2,6.329468E-2,2E-1,1.4855088E-1,-1.9151801E-1,-3.1639278E-1,-7.1073584E-2,1.8798836E-3,6.3117063E-1,2.1602722E-2,3.37917E-2,1.4684615E-3,3.8679746E-1,3.6036968E-1,4.859623E-2,2.250022E-2,2.1179897E-1,-3.0855578E-1,2.252337E-2,6.25E-2,3.7399298E-1,5.9183454E-3,5.014605E-1,-3.5700327E-1,1.4655308E-1,2.620796E-1,-2.8738278E-1,2.1410063E-1,2.5220898E-1,5.881057E-1,1.034706E-1,1.4655308E-1,5.1743478E-2,2.6693496E-1,9.4594964E-4,6.56126E-2,3.0782193E-1,5.5847326E-3,6.047935E-1,-4.4128764E-2,-1.9831839E-1,1.3401027E-1,-2.023484E-1,6.241413E-2,-7.713821E-2,-1.3137367E-1,1.2531745E-1,-2.0189705E-1,-1.7198764E-2,-1.8518128E-1,2.0046511E-1,-2.6508835E-1,1.6127773E-1,-1.7102718E-1,1.4588073E-1,7.694482E-2,-2.5511095E-1,2.8554806E-1,5.7658996E-2,-2.829896E-1,9.673189E-4,1.9317338E-1,-1.295737E-1,1.751503E-1,-2.6032528E-1,-2.0673664E-1,1.8882571E-1,9.18459E-2,2.3868494E-1],"split_indices":[7,12,21,4,6,18,3,13,9,18,12,8,1,4,12,24,2,9,8,0,0,0,0,24,26,22,2,10,12,12,6,0,0,0,11,9,0,18,5,0,6,5,0,2,0,3,0,6,2,0,0,0,0,1,3,0,0,0,0,0,0,0,0,0,0,0,0,0,0,0,0,0,0,0,0,0,0,0,0,0,0,0,0,0,0],"split_type":[0,0,0,0,0,0,0,0,0,0,0,0,0,0,0,0,0,0,0,0,0,0,0,0,0,0,0,0,0,0,0,0,0,0,0,0,0,0,0,0,0,0,0,0,0,0,0,0,0,0,0,0,0,0,0,0,0,0,0,0,0,0,0,0,0,0,0,0,0,0,0,0,0,0,0,0,0,0,0,0,0,0,0,0,0],"sum_hessian":[5.216396E2,3.4399344E2,1.7764613E2,3.300884E2,1.3905025E1,7.956434E1,9.80818E1,1.6906998E1,3.131814E2,3.483508E0,1.0421516E1,3.3208424E1,4.6355915E1,1.7674633E1,8.0407166E1,4.8064995E0,1.2100499E1,1.9793718E2,1.15244225E2,1.9810137E0,1.5024945E0,9.395067E0,1.0264494E0,1.2565934E1,2.0642488E1,1.6597532E1,2.9758385E1,1.1190317E1,6.484315E0,1.2535192E1,6.787198E1,2.6892977E0,2.1172016E0,7.6103535E0,4.490146E0,1.7592952E2,2.200766E1,4.3360744E1,7.1883484E1,7.6253953E0,4.9405384E0,1.5357164E1,5.285324E0,1.4875494E1,1.7220378E0,5.1768646E0,2.458152E1,8.072528E0,3.1177897E0,3.874773E0,2.609542E0,1.5308027E0,1.1004389E1,1.5812723E1,5.2059254E1,1.0211233E0,1.6681743E0,1.289641E0,3.200505E0,7.026409E1,1.0566543E2,1.3552651E1,2.9808094E1,3.9524494E1,3.2358986E1,2.0636797E0,2.8768587E0,1.9815108E0,1.3375653E1,1.2965618E1,1.9098756E0,1.3140277E0,3.8628368E0,1.2744341E1,1.1837179E1,5.7404785E0,2.3320494E0,1.4217958E0,1.695994E0,1.1104059E0,1.499136E0,1.1107284E1,4.7054396E0,3.2661755E1,1.93975E1],"tree_param":{"num_deleted":"0","num_feature":"31","num_nodes":"85","size_leaf_vector":"1"}},{"base_weights":[1.1408777E-3,1.4690749E-2,-2.654627E-1,-9.201608E-2,1.4834653E-1,2.9071763E-1,-1.5159827E-1,3.2776424E-1,9.5662825E-2,1.6227011E-1,2.655703E-1,-2.6767211E-2,-3.421179E-1,1.2690242E-1,-6.0013443E-1,4.2939776E-1,-4.983368E-2,-1.08837135E-1,3.5065955E-1,-6.429807E-2,-5.836071E-1,7.3205964E-3,3.456917E-1,-2.7244028E-1,1.6650115E-1,-1.2486472E-1,1.5889437E-1,-3.0861753E-1,4.1078776E-2,-5.713605E-2,1.0241312E-1,-1.2167428E-1,1.09824546E-1,-2.7554506E-1,-1.2498561E-1,1.6005255E-2,-2.7940258E-1,1.9200511E-1,-2.4471477E-2],"categories":[],"categories_nodes":[],"categories_segments":[],"categories_sizes":[],"default_left":[0,0,0,0,0,0,0,0,0,0,0,0,0,0,0,0,0,0,0,0,0,0,0,0,0,0,0,0,0,0,0,0,0,0,0,0,0,0,0],"id":18,"left_children":[1,3,-1,5,7,9,11,-1,13,15,-1,17,19,21,23,25,27,29,-1,31,33,35,37,-1,-1,-1,-1,-1,-1,-1,-1,-1,-1,-1,-1,-1,-1,-1,-1],"loss_changes":[5.9342523E0,6.9559536E0,0E0,6.2305994E0,1.0664061E1,2.6731887E0,5.5893784E0,0E0,4.5568013E0,1.8094201E0,0E0,1.4188985E1,6.208535E0,5.1804943E0,3.717389E0,1.4132996E0,3.5205839E0,5.026087E0,0E0,6.672465E0,2.3955994E0,5.6283197E0,8.85363E0,0E0,0E0,0E0,0E0,0E0,0E0,0E0,0E0,0E0,0E0,0E0,0E0,0E0,0E0,0E0,0E0],"parents":[2147483647,0,0,1,1,3,3,4,4,5,5,6,6,8,8,9,9,11,11,12,12,13,13,14,14,15,15,16,16,17,17,19,19,20,20,21,21,22,22],"right_children":[2,4,-1,6,8,10,12,-1,14,16,-1,18,20,22,24,26,28,30,-1,32,34,36,38,-1,-1,-1,-1,-1,-1,-1,-1,-1,-1,-1,-1,-1,-1,-1,-1],"split_conditions":[3.6065573E-1,9.765998E-2,-2.654627E-1,2.173913E-2,1.4285715E-1,1.1921874E-3,9.995572E-1,3.2776424E-1,2.173913E-1,6E-1,2.655703E-1,1.3462709E-3,3.2786883E-2,6.670828E-2,8.1059283E-1,5.6658145E-3,3.5076922E-1,5.959209E-1,3.5065955E-1,5.5847326E-3,1.034706E-1,7.1384615E-1,1.521739E-1,-2.7244028E-1,1.6650115E-1,-1.2486472E-1,1.5889437E-1,-3.0861753E-1,4.1078776E-2,-5.713605E-2,1.0241312E-1,-1.2167428E-1,1.09824546E-1,-2.7554506E-1,-1.2498561E-1,1.6005255E-2,-2.7940258E-1,1.9200511E-1,-2.4471477E-2],"split_indices":[0,6,0,11,6,11,23,0,11,3,0,23,0,11,4,21,12,12,0,1,0,12,11,0,0,0,0,0,0,0,0,0,0,0,0,0,0,0,0],"split_type":[0,0,0,0,0,0,0,0,0,0,0,0,0,0,0,0,0,0,0,0,0,0,0,0,0,0,0,0,0,0,0,0,0,0,0,0,0,0,0],"sum_hessian":[4.922153E2,4.8576984E2,6.44547E0,2.7028992E2,2.1547993E2,3.5886868E1,2.3440305E2,1.0344645E1,2.0513528E2,3.0557707E1,5.32916E0,1.42304E2,9.209904E1,1.9710344E2,8.031845E0,1.3071161E1,1.7486546E1,1.3401405E2,8.2899475E0,4.341675E1,4.868229E1,1.2811447E2,6.8988976E1,6.5099087E0,1.5219359E0,1.051335E0,1.2019827E1,2.0794127E0,1.5407132E1,1.1393627E2,2.0077785E1,2.4246986E1,1.9169765E1,1.4700934E1,3.3981354E1,1.2302473E2,5.0897393E0,4.0554554E1,2.8434422E1],"tree_param":{"num_deleted":"0","num_feature":"31","num_nodes":"39","size_leaf_vector":"1"}},{"base_weights":[6.230787E-4,2.1213186E-1,-4.451416E-2,-1.0816351E-2,5.5929816E-1,-6.4780426E-1,-2.3187293E-2,-1.6852774E-1,5.3061736E-1,-9.334499E-2,7.037542E-1,8.436924E-2,-7.6815665E-1,1.7016885E-1,-8.619107E-2,6.361891E-2,-5.3602356E-1,-5.3432945E-2,6.477765E-1,4.853447E-1,-6.8377286E-1,8.1777817E-1,-3.6301458E-1,-8.714452E-1,6.022556E-3,3.1706393E-1,-3.3271584E-1,-5.118653E-2,-6.012945E-1,5.7064307E-1,-1.3530606E-1,-8.548157E-1,-6.141561E-2,2.0923784E-1,9.254206E-1,-2.0335294E-2,2.1330856E-1,-3.891082E-1,9.965903E-2,8.6476064E-1,-1.8103195E-2,1.2712757E-2,-1.8381612E-1,-2.9628783E-1,1.7260715E-2,1.8757966E-1,9.0918803E-1,-6.391464E-1,2.9288855E-1,-1.3354105E-1,1.5473776E-1,2.2874074E-1,-8.3602923E-1,-8.247244E-2,2.517935E-1,-2.8856447E-1,1.233119E-3,-8.7918825E-2,-3.551015E-1,-1.1761405E-1,2.2420757E-1,1.8586951E-1,-1.6242157E-1,6.606539E-2,3.090568E-1,6.365018E-3,2.7585468E-1,1.003492E-1,-1.4854264E-1,2.4069479E-2,3.2157475E-1,8.153276E-2,-2.3575297E-1,1.809892E-1,-2.0706257E-1,-1.7738866E-2,-2.0335995E-1,7.7095084E-2,-1.8918115E-1,-2.8788763E-1,2.6871817E-2],"categories":[],"categories_nodes":[],"categories_segments":[],"categories_sizes":[],"default_left":[0,0,0,0,0,0,0,0,0,0,0,0,0,0,0,0,0,0,0,0,0,0,0,0,0,0,0,0,0,0,0,0,0,0,0,0,0,0,0,0,0,0,0,0,0,0,0,0,0,0,0,0,0,0,0,0,0,0,0,0,0,0,0,0,0,0,0,0,0,0,0,0,0,0,0,0,0,0,0,0,0],"id":19,"left_children":[1,3,5,7,9,11,13,15,17,19,21,-1,23,25,27,29,31,-1,33,35,37,39,41,43,-1,45,47,49,51,53,55,57,59,61,63,-1,-1,-1,-1,65,-1,-1,-1,-1,-1,67,69,71,73,75,77,-1,79,-1,-1,-1,-1,-1,-1,-1,-1,-1,-1,-1,-1,-1,-1,-1,-1,-1,-1,-1,-1,-1,-1,-1,-1,-1,-1,-1,-1],"loss_changes":[4.562852E0,6.512024E0,5.052933E0,4.54393E0,3.1664991E0,1.7156415E0,4.6619453E0,3.5453954E0,1.1124973E0,2.6700969E0,3.5867271E0,0E0,1.0060201E0,7.0560703E0,5.169201E0,2.7114482E0,2.3743749E0,0E0,1.0873494E0,5.526364E-1,2.800012E0,1.0729561E0,3.604563E-1,1.2178869E0,0E0,5.4518356E0,4.358469E0,4.618765E0,6.4822235E0,1.946172E0,2.2587707E0,1.4113593E0,2.3045247E0,1.9896795E0,2.2751474E-1,0E0,0E0,0E0,0E0,1.0682602E0,0E0,0E0,0E0,0E0,0E0,6.3275886E0,1.6539373E0,2.2072344E0,2.8087332E0,7.826372E0,6.418853E0,0E0,1.9225235E0,0E0,0E0,0E0,0E0,0E0,0E0,0E0,0E0,0E0,0E0,0E0,0E0,0E0,0E0,0E0,0E0,0E0,0E0,0E0,0E0,0E0,0E0,0E0,0E0,0E0,0E0,0E0,0E0],"parents":[2147483647,0,0,1,1,2,2,3,3,4,4,5,5,6,6,7,7,8,8,9,9,10,10,12,12,13,13,14,14,15,15,16,16,18,18,19,19,20,20,21,21,22,22,23,23,25,25,26,26,27,27,28,28,29,29,30,30,31,31,32,32,33,33,34,34,39,39,45,45,46,46,47,47,48,48,49,49,50,50,52,52],"right_children":[2,4,6,8,10,12,14,16,18,20,22,-1,24,26,28,30,32,-1,